{"learner":{"attributes":{"best_iteration":"581","best_score":"0.00469813636686572"},"feature_names":[],"feature_types":[],"gradient_booster":{"model":{"cats":{"enc":[],"feature_segments":[],"sorted_idx":[]},"gbtree_model_param":{"num_parallel_tree":"1","num_trees":"592"},"iteration_indptr":[0,1,2,3,4,5,6,7,8,9,10,11,12,13,14,15,16,17,18,19,20,21,22,23,24,25,26,27,28,29,30,31,32,33,34,35,36,37,38,39,40,41,42,43,44,45,46,47,48,49,50,51,52,53,54,55,56,57,58,59,60,61,62,63,64,65,66,67,68,69,70,71,72,73,74,75,76,77,78,79,80,81,82,83,84,85,86,87,88,89,90,91,92,93,94,95,96,97,98,99,100,101,102,103,104,105,106,107,108,109,110,111,112,113,114,115,116,117,118,119,120,121,122,123,124,125,126,127,128,129,130,131,132,133,134,135,136,137,138,139,140,141,142,143,144,145,146,147,148,149,150,151,152,153,154,155,156,157,158,159,160,161,162,163,164,165,166,167,168,169,170,171,172,173,174,175,176,177,178,179,180,181,182,183,184,185,186,187,188,189,190,191,192,193,194,195,196,197,198,199,200,201,202,203,204,205,206,207,208,209,210,211,212,213,214,215,216,217,218,219,220,221,222,223,224,225,226,227,228,229,230,231,232,233,234,235,236,237,238,239,240,241,242,243,244,245,246,247,248,249,250,251,252,253,254,255,256,257,258,259,260,261,262,263,264,265,266,267,268,269,270,271,272,273,274,275,276,277,278,279,280,281,282,283,284,285,286,287,288,289,290,291,292,293,294,295,296,297,298,299,300,301,302,303,304,305,306,307,308,309,310,311,312,313,314,315,316,317,318,319,320,321,322,323,324,325,326,327,328,329,330,331,332,333,334,335,336,337,338,339,340,341,342,343,344,345,346,347,348,349,350,351,352,353,354,355,356,357,358,359,360,361,362,363,364,365,366,367,368,369,370,371,372,373,374,375,376,377,378,379,380,381,382,383,384,385,386,387,388,389,390,391,392,393,394,395,396,397,398,399,400,401,402,403,404,405,406,407,408,409,410,411,412,413,414,415,416,417,418,419,420,421,422,423,424,425,426,427,428,429,430,431,432,433,434,435,436,437,438,439,440,441,442,443,444,445,446,447,448,449,450,451,452,453,454,455,456,457,458,459,460,461,462,463,464,465,466,467,468,469,470,471,472,473,474,475,476,477,478,479,480,481,482,483,484,485,486,487,488,489,490,491,492,493,494,495,496,497,498,499,500,501,502,503,504,505,506,507,508,509,510,511,512,513,514,515,516,517,518,519,520,521,522,523,524,525,526,527,528,529,530,531,532,533,534,535,536,537,538,539,540,541,542,543,544,545,546,547,548,549,550,551,552,553,554,555,556,557,558,559,560,561,562,563,564,565,566,567,568,569,570,571,572,573,574,575,576,577,578,579,580,581,582,583,584,585,586,587,588,589,590,591,592],"tree_info":[0,0,0,0,0,0,0,0,0,0,0,0,0,0,0,0,0,0,0,0,0,0,0,0,0,0,0,0,0,0,0,0,0,0,0,0,0,0,0,0,0,0,0,0,0,0,0,0,0,0,0,0,0,0,0,0,0,0,0,0,0,0,0,0,0,0,0,0,0,0,0,0,0,0,0,0,0,0,0,0,0,0,0,0,0,0,0,0,0,0,0,0,0,0,0,0,0,0,0,0,0,0,0,0,0,0,0,0,0,0,0,0,0,0,0,0,0,0,0,0,0,0,0,0,0,0,0,0,0,0,0,0,0,0,0,0,0,0,0,0,0,0,0,0,0,0,0,0,0,0,0,0,0,0,0,0,0,0,0,0,0,0,0,0,0,0,0,0,0,0,0,0,0,0,0,0,0,0,0,0,0,0,0,0,0,0,0,0,0,0,0,0,0,0,0,0,0,0,0,0,0,0,0,0,0,0,0,0,0,0,0,0,0,0,0,0,0,0,0,0,0,0,0,0,0,0,0,0,0,0,0,0,0,0,0,0,0,0,0,0,0,0,0,0,0,0,0,0,0,0,0,0,0,0,0,0,0,0,0,0,0,0,0,0,0,0,0,0,0,0,0,0,0,0,0,0,0,0,0,0,0,0,0,0,0,0,0,0,0,0,0,0,0,0,0,0,0,0,0,0,0,0,0,0,0,0,0,0,0,0,0,0,0,0,0,0,0,0,0,0,0,0,0,0,0,0,0,0,0,0,0,0,0,0,0,0,0,0,0,0,0,0,0,0,0,0,0,0,0,0,0,0,0,0,0,0,0,0,0,0,0,0,0,0,0,0,0,0,0,0,0,0,0,0,0,0,0,0,0,0,0,0,0,0,0,0,0,0,0,0,0,0,0,0,0,0,0,0,0,0,0,0,0,0,0,0,0,0,0,0,0,0,0,0,0,0,0,0,0,0,0,0,0,0,0,0,0,0,0,0,0,0,0,0,0,0,0,0,0,0,0,0,0,0,0,0,0,0,0,0,0,0,0,0,0,0,0,0,0,0,0,0,0,0,0,0,0,0,0,0,0,0,0,0,0,0,0,0,0,0,0,0,0,0,0,0,0,0,0,0,0,0,0,0,0,0,0,0,0,0,0,0,0,0,0,0,0,0,0,0,0,0,0,0,0,0,0,0,0,0,0,0,0,0,0,0,0,0,0,0,0,0,0,0,0,0,0,0,0,0,0,0,0,0,0,0,0,0,0,0,0,0,0,0,0,0,0,0,0,0,0,0,0,0,0,0,0,0,0,0,0,0,0,0,0,0,0,0,0,0,0,0,0,0,0,0,0,0,0,0,0,0],"trees":[{"base_weights":[-9.427297E-8,1.1875817E0,-2.3807602E0,1.4654316E0,-1.305383E0,8.608314E-2,-2.5139809E0,1.4940963E0,-6.076462E-3,6.1230373E-2,-1.9159025E0,-6.076462E-3,-2.5972012E-1,1.5235518E-1,1.0055749E-2,-5.215626E-2,-2.1388654E-1],"categories":[],"categories_nodes":[],"categories_segments":[],"categories_sizes":[],"default_left":[0,0,0,0,0,0,0,0,0,0,0,0,0,0,0,0,0],"id":0,"left_children":[1,3,5,7,9,-1,11,13,-1,-1,15,-1,-1,-1,-1,-1,-1],"loss_changes":[3.0672055E2,5.2047752E1,1.7755707E1,2.9602966E0,1.0289855E1,0E0,6.974289E0,2.49115E0,0E0,0E0,7.9597855E-1,0E0,0E0,0E0,0E0,0E0,0E0],"parents":[2147483647,0,0,1,1,2,2,3,3,4,4,6,6,7,7,10,10],"right_children":[2,4,6,8,10,-1,12,14,-1,-1,16,-1,-1,-1,-1,-1,-1],"split_conditions":[1.684E1,1.447E-1,4.757E-1,6.107E-1,2.375E1,8.608314E-2,1.887E-1,1.357E-1,-6.076462E-3,6.1230373E-2,9.938E-2,-6.076462E-3,-2.5972012E-1,1.5235518E-1,1.0055749E-2,-5.215626E-2,-2.1388654E-1],"split_indices":[20,27,11,10,21,0,26,27,0,0,6,0,0,0,0,0,0],"split_type":[0,0,0,0,0,0,0,0,0,0,0,0,0,0,0,0,0],"sum_hessian":[1.0648351E2,7.137906E1,3.5104454E1,6.459219E1,6.786861E0,1.1701485E0,3.3934307E1,6.3422047E1,1.1701485E0,1.6382079E0,5.1486535E0,1.1701485E0,3.2764156E1,6.2017868E1,1.4041781E0,1.1701485E0,3.978505E0],"tree_param":{"num_deleted":"0","num_feature":"30","num_nodes":"17","size_leaf_vector":"1"}},{"base_weights":[2.142478E-3,1.2640873E0,-1.8195662E0,1.3933859E0,-1.2442639E-1,1.7350161E-1,-2.074996E0,1.4229605E0,-6.4762356E-3,1.1832767E-1,-1.4504312E-1,3.392788E-4,-2.179197E0,1.4523591E-1,1.236459E-2,-2.7104845E-2,-2.2470291E-1],"categories":[],"categories_nodes":[],"categories_segments":[],"categories_sizes":[],"default_left":[0,0,0,0,0,0,0,0,0,0,0,0,0,0,0,0,0],"id":1,"left_children":[1,3,5,7,-1,9,11,13,-1,-1,-1,-1,15,-1,-1,-1,-1],"loss_changes":[2.4741473E2,2.2354034E1,2.2782272E1,2.7198944E0,0E0,1.1434138E1,8.479111E0,2.103363E0,0E0,0E0,0E0,0E0,4.212555E0,0E0,0E0,0E0,0E0],"parents":[2147483647,0,0,1,1,2,2,3,3,5,5,6,6,7,7,12,12],"right_children":[2,4,6,8,-1,10,12,14,-1,-1,-1,-1,16,-1,-1,-1,-1],"split_conditions":[1.06E2,1.599E-1,2.05E1,4.538E1,-1.2442639E-1,7.34E-2,3.068E-2,1.357E-1,-6.4762356E-3,1.1832767E-1,-1.4504312E-1,3.392788E-4,1.081E-1,1.4523591E-1,1.236459E-2,-2.7104845E-2,-2.2470291E-1],"split_indices":[22,27,21,13,0,7,7,27,0,0,0,0,24,0,0,0,0],"split_type":[0,0,0,0,0,0,0,0,0,0,0,0,0,0,0,0,0],"sum_hessian":[1.0562277E2,6.257887E1,4.3043903E1,5.993394E1,2.6449275E0,4.926233E0,3.8117672E1,5.8766155E1,1.1677843E0,3.2048078E0,1.7214252E0,1.8659978E0,3.6251675E1,5.735074E1,1.415418E0,1.4159598E0,3.4835712E1],"tree_param":{"num_deleted":"0","num_feature":"30","num_nodes":"17","size_leaf_vector":"1"}},{"base_weights":[2.4595677E-3,1.2628537E0,-1.5450642E0,1.3383433E0,-1.2152902E-1,2.2299913E-1,-1.8742267E0,1.3709302E0,-1.6718557E-2,1.0367875E0,-9.592991E-1,-4.2235136E-1,-1.9835456E-1,1.4027652E-1,-6.1216243E-3,3.1663276E-2,1.14664175E-1,-1.39167E-1,1.9357918E-3,8.505562E-2,-1.3465579E-1],"categories":[],"categories_nodes":[],"categories_segments":[],"categories_sizes":[],"default_left":[0,0,0,0,0,0,0,0,0,0,0,0,0,0,0,0,0,0,0,0,0],"id":2,"left_children":[1,3,5,7,-1,9,11,13,-1,15,17,19,-1,-1,-1,-1,-1,-1,-1,-1,-1],"loss_changes":[2.0544313E2,1.2485886E1,2.7933907E1,3.0162582E0,0E0,8.994127E0,5.5054626E0,2.626007E0,0E0,6.455326E-2,1.681042E0,5.9322414E0,0E0,0E0,0E0,0E0,0E0,0E0,0E0,0E0,0E0],"parents":[2147483647,0,0,1,1,2,2,3,3,5,5,6,6,7,7,9,9,10,10,11,11],"right_children":[2,4,6,8,-1,10,12,14,-1,16,18,20,-1,-1,-1,-1,-1,-1,-1,-1,-1],"split_conditions":[1.034E2,1.767E-1,4.744E-2,7.689E2,-1.2152902E-1,2.728E1,2.05E1,4.538E1,-1.6718557E-2,2.653E-2,1.432E-2,7.34E-2,-1.9835456E-1,1.4027652E-1,-6.1216243E-3,3.1663276E-2,1.14664175E-1,-1.39167E-1,1.9357918E-3,8.505562E-2,-1.3465579E-1],"split_indices":[22,27,7,23,0,21,21,13,0,7,15,7,0,0,0,0,0,0,0,0,0],"split_type":[0,0,0,0,0,0,0,0,0,0,0,0,0,0,0,0,0,0,0,0,0],"sum_hessian":[1.0332862E2,5.7048737E1,4.6279884E1,5.5808628E1,1.2401092E0,7.3143125E0,3.8965572E1,5.4713764E1,1.0948644E0,4.405224E0,2.9090881E0,3.0690231E0,3.589655E1,5.3544052E1,1.1697111E0,1.0968785E0,3.3083456E0,1.7249742E0,1.184114E0,1.3244927E0,1.7445304E0],"tree_param":{"num_deleted":"0","num_feature":"30","num_nodes":"21","size_leaf_vector":"1"}},{"base_weights":[2.03172E-3,1.2018999E0,-1.4045775E0,1.2775712E0,-1.14319816E-1,2.062327E-1,-1.7003266E0,1.3105499E0,-1.5796496E-2,1.1258029E-1,-7.606841E-1,-3.9512247E-1,-1.7973214E-1,1.3427757E-1,-5.7865432E-3,-1.4765196E-1,7.867059E-2,8.168063E-2,-1.2583677E-1],"categories":[],"categories_nodes":[],"categories_segments":[],"categories_sizes":[],"default_left":[0,0,0,0,0,0,0,0,0,0,0,0,0,0,0,0,0,0,0],"id":3,"left_children":[1,3,5,7,-1,9,11,13,-1,-1,15,17,-1,-1,-1,-1,-1,-1,-1],"loss_changes":[1.7220943E2,1.1231873E1,2.2727745E1,2.754692E0,0E0,8.12797E0,4.3276215E0,2.4022675E0,0E0,0E0,6.2383165E0,5.248641E0,0E0,0E0,0E0,0E0,0E0,0E0,0E0],"parents":[2147483647,0,0,1,1,2,2,3,3,5,5,6,6,7,7,10,10,11,11],"right_children":[2,4,6,8,-1,10,12,14,-1,-1,16,18,-1,-1,-1,-1,-1,-1,-1],"split_conditions":[1.034E2,1.767E-1,4.744E-2,7.689E2,-1.14319816E-1,2.644E1,2.05E1,4.538E1,-1.5796496E-2,1.1258029E-1,1.631E-2,7.34E-2,-1.7973214E-1,1.3427757E-1,-5.7865432E-3,-1.4765196E-1,7.867059E-2,8.168063E-2,-1.2583677E-1],"split_indices":[22,27,7,23,0,21,21,13,0,0,15,7,0,0,0,0,0,0,0],"split_type":[0,0,0,0,0,0,0,0,0,0,0,0,0,0,0,0,0,0,0],"sum_hessian":[1.00034935E2,5.40633E1,4.5971634E1,5.2814312E1,1.2489905E0,7.1781564E0,3.8793476E1,5.1713367E1,1.1009448E0,3.5949328E0,3.5832236E0,3.0344398E0,3.5759037E1,5.0541855E1,1.171514E0,2.4811997E0,1.1020238E0,1.2846657E0,1.7497741E0],"tree_param":{"num_deleted":"0","num_feature":"30","num_nodes":"19","size_leaf_vector":"1"}},{"base_weights":[1.676402E-3,1.1795367E0,-1.263526E0,1.242787E0,-7.684945E-2,1.6878986E-1,-1.5423161E0,1.2753893E0,-5.4698843E-3,7.83191E-1,-1.0236901E-1,-2.233293E-1,-1.6583204E0,1.2911333E-1,2.7391037E-2,1.122209E-1,-3.6161043E-2,8.648375E-2,-1.1824965E-1,-1.6814837E-1,-5.457154E-2],"categories":[],"categories_nodes":[],"categories_segments":[],"categories_sizes":[],"default_left":[0,0,0,0,0,0,0,0,0,0,0,0,0,0,0,0,0,0,0,0,0],"id":4,"left_children":[1,3,5,7,-1,9,11,13,-1,15,-1,17,19,-1,-1,-1,-1,-1,-1,-1,-1],"loss_changes":[1.4605463E2,7.208809E0,1.9129059E1,2.165413E0,0E0,7.1027966E0,5.6968E0,4.0898132E-1,0E0,2.828533E0,0E0,5.5745225E0,1.7677307E-2,0E0,0E0,0E0,0E0,0E0,0E0,0E0,0E0],"parents":[2147483647,0,0,1,1,2,2,3,3,5,5,6,6,7,7,9,9,11,11,12,12],"right_children":[2,4,6,8,-1,10,12,14,-1,16,-1,18,20,-1,-1,-1,-1,-1,-1,-1,-1],"split_conditions":[1.025E2,4.478E-1,4.744E-2,4.538E1,-7.684945E-2,2.916E1,2.05E1,2.375E-1,-5.4698843E-3,1.739E1,-1.0236901E-1,7.34E-2,1.091E-1,1.2911333E-1,2.7391037E-2,1.122209E-1,-3.6161043E-2,8.648375E-2,-1.1824965E-1,-1.6814837E-1,-5.457154E-2],"split_indices":[22,25,7,13,0,21,21,8,0,20,0,7,16,0,0,0,0,0,0,0,0],"split_type":[0,0,0,0,0,0,0,0,0,0,0,0,0,0,0,0,0,0,0,0,0],"sum_hessian":[9.600792E1,4.975522E1,4.62527E1,4.8541172E1,1.2140461E0,7.600228E0,3.8652473E1,4.736797E1,1.173202E0,5.2424083E0,2.3578196E0,3.3611271E0,3.5291344E1,4.6350086E1,1.0178825E0,4.0598664E0,1.1825417E0,1.6207479E0,1.7403791E0,3.4070724E1,1.2206196E0],"tree_param":{"num_deleted":"0","num_feature":"30","num_nodes":"21","size_leaf_vector":"1"}},{"base_weights":[6.2292145E-4,1.1336526E0,-1.1793973E0,1.1978961E0,-7.245482E-2,1.5355657E-1,-1.4404551E0,1.2313924E0,-5.170634E-3,1.0376529E-1,-6.105998E-1,-2.1195914E-1,-1.5489419E0,1.2475355E-1,2.6145568E-2,-1.419429E-1,8.522001E-2,8.31946E-2,-1.1164321E-1,-1.57113E-1,-5.043135E-2],"categories":[],"categories_nodes":[],"categories_segments":[],"categories_sizes":[],"default_left":[0,0,0,0,0,0,0,0,0,0,0,0,0,0,0,0,0,0,0,0,0],"id":5,"left_children":[1,3,5,7,-1,9,11,13,-1,-1,15,17,19,-1,-1,-1,-1,-1,-1,-1,-1],"loss_changes":[1.2517787E2,6.5698395E0,1.6180252E1,2.0118942E0,0E0,6.318471E0,4.7957993E0,3.842163E-1,0E0,0E0,7.294684E0,4.968298E0,2.2834778E-2,0E0,0E0,0E0,0E0,0E0,0E0,0E0,0E0],"parents":[2147483647,0,0,1,1,2,2,3,3,5,5,6,6,7,7,10,10,11,11,12,12],"right_children":[2,4,6,8,-1,10,12,14,-1,-1,16,18,20,-1,-1,-1,-1,-1,-1,-1,-1],"split_conditions":[1.025E2,4.478E-1,4.744E-2,4.538E1,-7.245482E-2,2.644E1,2.05E1,2.375E-1,-5.170634E-3,1.0376529E-1,1.631E-2,7.34E-2,7.751E-2,1.2475355E-1,2.6145568E-2,-1.419429E-1,8.522001E-2,8.31946E-2,-1.1164321E-1,-1.57113E-1,-5.043135E-2],"split_indices":[22,25,7,13,0,21,21,8,0,0,15,7,9,0,0,0,0,0,0,0,0],"split_type":[0,0,0,0,0,0,0,0,0,0,0,0,0,0,0,0,0,0,0,0,0],"sum_hessian":[9.162606E1,4.6763786E1,4.4862274E1,4.5544525E1,1.2192614E0,7.4147167E0,3.7447556E1,4.436974E1,1.1747829E0,3.2716506E0,4.1430664E0,3.2782845E0,3.4169273E1,4.3361847E1,1.0078924E0,2.6869912E0,1.456075E0,1.5590643E0,1.7192202E0,3.2965073E1,1.2041978E0],"tree_param":{"num_deleted":"0","num_feature":"30","num_nodes":"21","size_leaf_vector":"1"}},{"base_weights":[2.6826948E-4,1.0928708E0,-1.1096287E0,1.158707E0,-7.1770154E-2,1.4919233E-1,-1.3578053E0,1.1933123E0,-4.8878235E-3,9.985871E-2,-5.696522E-1,-2.0151268E-1,-1.4609398E0,1.23483144E-1,5.2182198E-2,-1.328E-1,8.193642E-2,8.014317E-2,-1.0582747E-1,-1.4830896E-1,-4.6188623E-2],"categories":[],"categories_nodes":[],"categories_segments":[],"categories_sizes":[],"default_left":[0,0,0,0,0,0,0,0,0,0,0,0,0,0,0,0,0,0,0,0,0],"id":6,"left_children":[1,3,5,7,-1,9,11,13,-1,-1,15,17,19,-1,-1,-1,-1,-1,-1,-1,-1],"loss_changes":[1.07871956E2,6.1749115E0,1.3988506E1,1.8818092E0,0E0,5.556132E0,4.1131744E0,5.3939056E-1,0E0,0E0,6.4189205E0,4.4456377E0,6.2332153E-2,0E0,0E0,0E0,0E0,0E0,0E0,0E0,0E0],"parents":[2147483647,0,0,1,1,2,2,3,3,5,5,6,6,7,7,10,10,11,11,12,12],"right_children":[2,4,6,8,-1,10,12,14,-1,-1,16,18,20,-1,-1,-1,-1,-1,-1,-1,-1],"split_conditions":[1.025E2,1.712E-1,4.744E-2,4.538E1,-7.1770154E-2,2.644E1,2.05E1,3.321E1,-4.8878235E-3,9.985871E-2,1.631E-2,7.34E-2,1.091E-1,1.23483144E-1,5.2182198E-2,-1.328E-1,8.193642E-2,8.014317E-2,-1.0582747E-1,-1.4830896E-1,-4.6188623E-2],"split_indices":[22,27,7,13,0,21,21,21,0,0,15,7,16,0,0,0,0,0,0,0,0],"split_type":[0,0,0,0,0,0,0,0,0,0,0,0,0,0,0,0,0,0,0,0,0],"sum_hessian":[8.695363E1,4.382593E1,4.3127697E1,4.2635643E1,1.1902882E0,7.168074E0,3.595962E1,4.1459377E1,1.176264E0,3.1072989E0,4.060775E0,3.186625E0,3.2772995E1,3.8255074E1,3.2043054E0,2.6551154E0,1.4056597E0,1.4978223E0,1.6888027E0,3.1588165E1,1.1848309E0],"tree_param":{"num_deleted":"0","num_feature":"30","num_nodes":"21","size_leaf_vector":"1"}},{"base_weights":[1.7120116E-4,1.055996E0,-1.0509629E0,1.1241257E0,-6.8359725E-2,1.4581807E-1,-1.289246E0,1.1600739E0,-4.620533E-3,9.628151E-2,-5.3372866E-1,-1.9185914E-1,-1.3885508E0,1.17834724E-1,2.4253877E-2,-1.2500386E-1,7.889127E-2,7.72981E-2,-1.0065671E-1,-4.1097432E-2,-1.4115535E-1],"categories":[],"categories_nodes":[],"categories_segments":[],"categories_sizes":[],"default_left":[0,0,0,0,0,0,0,0,0,0,0,0,0,0,0,0,0,0,0,0,0],"id":7,"left_children":[1,3,5,7,-1,9,11,13,-1,-1,15,17,19,-1,-1,-1,-1,-1,-1,-1,-1],"loss_changes":[9.344992E1,5.747139E0,1.2220982E1,1.7702293E0,0E0,4.9024563E0,3.5794296E0,3.7857437E-1,0E0,0E0,5.6841455E0,3.9921522E0,1.4401245E-1,0E0,0E0,0E0,0E0,0E0,0E0,0E0,0E0],"parents":[2147483647,0,0,1,1,2,2,3,3,5,5,6,6,7,7,10,10,11,11,12,12],"right_children":[2,4,6,8,-1,10,12,14,-1,-1,16,18,20,-1,-1,-1,-1,-1,-1,-1,-1],"split_conditions":[1.025E2,4.478E-1,4.744E-2,4.538E1,-6.8359725E-2,2.644E1,2.05E1,1.489E-1,-4.620533E-3,9.628151E-2,1.631E-2,7.34E-2,1.102E-1,1.17834724E-1,2.4253877E-2,-1.2500386E-1,7.889127E-2,7.72981E-2,-1.0065671E-1,-4.1097432E-2,-1.4115535E-1],"split_indices":[22,25,7,13,0,21,21,5,0,0,15,7,24,0,0,0,0,0,0,0,0],"split_type":[0,0,0,0,0,0,0,0,0,0,0,0,0,0,0,0,0,0,0,0,0],"sum_hessian":[8.220328E1,4.1007828E1,4.1195446E1,3.9802784E1,1.2050458E0,6.904668E0,3.429078E1,3.862513E1,1.1776522E0,2.945972E0,3.958696E0,3.0888515E0,3.1201927E1,3.75922E1,1.0329291E0,2.6035626E0,1.3551332E0,1.4375778E0,1.6512735E0,1.1510404E0,3.0050886E1],"tree_param":{"num_deleted":"0","num_feature":"30","num_nodes":"21","size_leaf_vector":"1"}},{"base_weights":[-2.916007E-4,8.277296E-1,-1.2365215E0,1.0820572E0,-5.2849364E-1,3.793186E-2,-1.3026161E0,1.1190871E0,-1.1631279E-2,5.142074E-1,-1.1109782E0,8.423483E-3,-1.3626252E-1,2.15944E-2,1.1392796E-1,9.179481E-2,-2.63845E-2,-2.7320175E-2,-1.2359251E-1],"categories":[],"categories_nodes":[],"categories_segments":[],"categories_sizes":[],"default_left":[0,0,0,0,0,0,0,0,0,0,0,0,0,0,0,0,0,0,0],"id":8,"left_children":[1,3,5,7,9,-1,11,13,-1,15,17,-1,-1,-1,-1,-1,-1,-1,-1],"loss_changes":[8.130888E1,1.6980045E1,3.8969345E0,1.9223366E0,5.541792E0,0E0,2.6810303E0,4.7013474E-1,0E0,1.3783408E0,2.4509048E-1,0E0,0E0,0E0,0E0,0E0,0E0,0E0,0E0],"parents":[2147483647,0,0,1,1,2,2,3,3,4,4,6,6,7,7,9,9,10,10],"right_children":[2,4,6,8,10,-1,12,14,-1,16,18,-1,-1,-1,-1,-1,-1,-1,-1],"split_conditions":[1.677E1,1.357E-1,4.833E-1,4.538E1,2.553E1,3.793186E-2,1.887E-1,3.457E-3,-1.1631279E-2,1.08E-1,2.723E-1,8.423483E-3,-1.3626252E-1,2.15944E-2,1.1392796E-1,9.179481E-2,-2.63845E-2,-2.7320175E-2,-1.2359251E-1],"split_indices":[20,27,11,13,21,0,26,14,0,4,28,0,0,0,0,0,0,0,0],"split_type":[0,0,0,0,0,0,0,0,0,0,0,0,0,0,0,0,0,0,0],"sum_hessian":[7.743245E1,4.657031E1,3.0862143E1,3.9386463E1,7.183847E0,1.0265554E0,2.9835587E1,3.827007E1,1.1163948E0,2.6167827E0,4.5670643E0,1.2206985E0,2.861489E1,1.0926731E0,3.7177395E1,1.6044252E0,1.0123575E0,1.0063002E0,3.560764E0],"tree_param":{"num_deleted":"0","num_feature":"30","num_nodes":"19","size_leaf_vector":"1"}},{"base_weights":[-5.130448E-4,9.939887E-1,-9.5942616E-1,1.064243E0,-6.3622095E-2,1.339154E-1,-1.1825746E0,1.1053225E0,-3.4388744E-3,6.5725106E-1,-7.746037E-1,-1.5092957E-1,-1.2801814E0,1.1543188E-1,3.9201256E-2,9.436225E-2,-2.3219526E-2,-9.157111E-2,-2.3908546E-2,7.295904E-2,-9.012471E-2,-1.3044316E-1,-3.44018E-2],"categories":[],"categories_nodes":[],"categories_segments":[],"categories_sizes":[],"default_left":[0,0,0,0,0,0,0,0,0,0,0,0,0,0,0,0,0,0,0,0,0,0,0],"id":9,"left_children":[1,3,5,7,-1,9,11,13,-1,15,17,19,21,-1,-1,-1,-1,-1,-1,-1,-1,-1,-1],"loss_changes":[7.13651E1,4.884403E0,9.453571E0,1.6443329E0,0E0,4.00664E0,3.003109E0,7.476387E-1,0E0,1.5457611E0,1.8919587E-2,3.2191644E0,2.0655823E-1,0E0,0E0,0E0,0E0,0E0,0E0,0E0,0E0,0E0,0E0],"parents":[2147483647,0,0,1,1,2,2,3,3,5,5,6,6,7,7,9,9,10,10,11,11,12,12],"right_children":[2,4,6,8,-1,10,12,14,-1,16,18,20,22,-1,-1,-1,-1,-1,-1,-1,-1,-1,-1],"split_conditions":[1.025E2,1.712E-1,4.744E-2,4.115E0,-6.3622095E-2,2.916E1,2.05E1,3.321E1,-3.4388744E-3,1.739E1,7.399E-2,7.34E-2,7.751E-2,1.1543188E-1,3.9201256E-2,9.436225E-2,-2.3219526E-2,-9.157111E-2,-2.3908546E-2,7.295904E-2,-9.012471E-2,-1.3044316E-1,-3.44018E-2],"split_indices":[22,27,7,12,0,21,21,21,0,20,29,7,9,0,0,0,0,0,0,0,0,0,0],"split_type":[0,0,0,0,0,0,0,0,0,0,0,0,0,0,0,0,0,0,0,0,0,0,0],"sum_hessian":[7.283435E1,3.5735744E1,3.7098602E1,3.4592163E1,1.1435838E0,6.356092E0,3.074251E1,3.333946E1,1.2527012E0,4.208457E0,2.147635E0,2.8773131E0,2.7865198E1,3.0618084E1,2.7213764E0,3.1374083E0,1.0710486E0,1.1378597E0,1.0097753E0,1.3365068E0,1.5408063E0,2.677816E1,1.0870367E0],"tree_param":{"num_deleted":"0","num_feature":"30","num_nodes":"23","size_leaf_vector":"1"}},{"base_weights":[-1.9955419E-3,9.6449906E-1,-9.2111963E-1,1.0394181E0,-6.0262542E-2,1.18796706E-1,-1.1389133E0,1.0814143E0,-5.8891564E-3,8.7660186E-2,-4.8181266E-1,-1.4423648E-1,-1.235156E0,1.1008569E-1,2.644887E-2,-1.114285E-1,7.163949E-2,7.0548914E-2,-8.644486E-2,-1.2609836E-1,-3.0618181E-2],"categories":[],"categories_nodes":[],"categories_segments":[],"categories_sizes":[],"default_left":[0,0,0,0,0,0,0,0,0,0,0,0,0,0,0,0,0,0,0,0,0],"id":10,"left_children":[1,3,5,7,-1,9,11,13,-1,-1,15,17,19,-1,-1,-1,-1,-1,-1,-1,-1],"loss_changes":[6.2520584E1,4.6542797E0,8.305359E0,1.5908165E0,0E0,3.6776364E0,2.6861763E0,2.1615982E-1,0E0,0E0,4.3109975E0,2.9181833E0,2.6529694E-1,0E0,0E0,0E0,0E0,0E0,0E0,0E0,0E0],"parents":[2147483647,0,0,1,1,2,2,3,3,5,5,6,6,7,7,10,10,11,11,12,12],"right_children":[2,4,6,8,-1,10,12,14,-1,-1,16,18,20,-1,-1,-1,-1,-1,-1,-1,-1],"split_conditions":[1.025E2,1.785E-1,4.744E-2,4.538E1,-6.0262542E-2,2.644E1,2.05E1,3.88E-2,-5.8891564E-3,8.7660186E-2,1.631E-2,7.34E-2,1.091E-1,1.1008569E-1,2.644887E-2,-1.114285E-1,7.163949E-2,7.0548914E-2,-8.644486E-2,-1.2609836E-1,-3.0618181E-2],"split_indices":[22,24,7,13,0,21,21,18,0,0,15,7,16,0,0,0,0,0,0,0,0],"split_type":[0,0,0,0,0,0,0,0,0,0,0,0,0,0,0,0,0,0,0,0,0],"sum_hessian":[6.837992E1,3.3306976E1,3.5072945E1,3.21087E1,1.198276E0,6.152181E0,2.8920763E1,3.094099E1,1.1677095E0,2.516953E0,3.6352284E0,2.771878E0,2.6148886E1,2.9882244E1,1.0587481E0,2.4251542E0,1.2100743E0,1.2809827E0,1.4908954E0,2.5093828E1,1.0550567E0],"tree_param":{"num_deleted":"0","num_feature":"30","num_nodes":"21","size_leaf_vector":"1"}},{"base_weights":[-2.387693E-3,7.520862E-1,-1.1070659E0,1.0011255E0,-4.5095864E-1,5.8520986E-3,-1.1980884E0,1.0593429E0,6.051424E-3,4.9804157E-1,-9.939423E-1,-3.147947E-2,-1.2272345E-1,2.0799708E-2,1.0830974E-1,-1.2748708E-2,8.3193965E-2,-2.6894504E-2,-1.11023724E-1],"categories":[],"categories_nodes":[],"categories_segments":[],"categories_sizes":[],"default_left":[0,0,0,0,0,0,0,0,0,0,0,0,0,0,0,0,0,0,0],"id":11,"left_children":[1,3,5,7,9,-1,11,13,-1,15,17,-1,-1,-1,-1,-1,-1,-1,-1],"loss_changes":[5.502429E1,1.2204924E1,2.9125023E0,1.7326927E0,4.317219E0,0E0,2.5463486E-1,3.9839172E-1,0E0,8.0902725E-1,1.2734699E-1,0E0,0E0,0E0,0E0,0E0,0E0,0E0,0E0],"parents":[2147483647,0,0,1,1,2,2,3,3,4,4,6,6,7,7,9,9,10,10],"right_children":[2,4,6,8,10,-1,12,14,-1,16,18,-1,-1,-1,-1,-1,-1,-1,-1],"split_conditions":[1.677E1,1.357E-1,1.496E1,3.887E1,2.553E1,5.8520986E-3,2.09E-1,3.492E-3,6.051424E-3,3.348E-2,1.842E-1,-3.147947E-2,-1.2272345E-1,2.0799708E-2,1.0830974E-1,-1.2748708E-2,8.3193965E-2,-2.6894504E-2,-1.11023724E-1],"split_indices":[20,27,1,13,21,0,26,14,0,15,8,0,0,0,0,0,0,0,0],"split_type":[0,0,0,0,0,0,0,0,0,0,0,0,0,0,0,0,0,0,0],"sum_hessian":[6.402084E1,3.82298E1,2.5791039E1,3.1812267E1,6.417536E0,1.89404E0,2.3896997E1,2.9839197E1,1.9730698E0,2.365682E0,4.0518537E0,1.1402873E0,2.275671E1,1.0748082E0,2.8764389E1,1.0384405E0,1.3272414E0,1.0180172E0,3.0338366E0],"tree_param":{"num_deleted":"0","num_feature":"30","num_nodes":"19","size_leaf_vector":"1"}},{"base_weights":[-3.2911263E-3,9.1312915E-1,-8.556256E-1,9.8975044E-1,-5.673898E-2,1.2102231E-1,-1.0685327E0,1.0380476E0,-5.404019E-3,6.110126E-1,-6.9198266E-2,-1.3749455E-1,-1.1640823E0,1.0589758E-1,2.715995E-2,8.678254E-2,-1.6547045E-2,6.681032E-2,-8.1263006E-2,-2.6716048E-2,-1.1941834E-1],"categories":[],"categories_nodes":[],"categories_segments":[],"categories_sizes":[],"default_left":[0,0,0,0,0,0,0,0,0,0,0,0,0,0,0,0,0,0,0,0,0],"id":12,"left_children":[1,3,5,7,-1,9,11,13,-1,15,-1,17,19,-1,-1,-1,-1,-1,-1,-1,-1],"loss_changes":[4.8439938E1,3.951809E0,6.810095E0,1.5069447E0,0E0,3.0714357E0,2.1956482E0,1.5439987E-1,0E0,1.0767547E0,0E0,2.5001502E0,3.2572937E-1,0E0,0E0,0E0,0E0,0E0,0E0,0E0,0E0],"parents":[2147483647,0,0,1,1,2,2,3,3,5,5,6,6,7,7,9,9,11,11,12,12],"right_children":[2,4,6,8,-1,10,12,14,-1,16,-1,18,20,-1,-1,-1,-1,-1,-1,-1,-1],"split_conditions":[1.025E2,4.478E-1,4.744E-2,4.115E0,-5.673898E-2,2.916E1,2.05E1,3.557E-1,-5.404019E-3,1.739E1,-6.9198266E-2,7.34E-2,8.421E-2,1.0589758E-1,2.715995E-2,8.678254E-2,-1.6547045E-2,6.681032E-2,-8.1263006E-2,-2.6716048E-2,-1.1941834E-1],"split_indices":[22,25,7,12,0,21,21,28,0,20,0,7,4,0,0,0,0,0,0,0,0],"split_type":[0,0,0,0,0,0,0,0,0,0,0,0,0,0,0,0,0,0,0,0,0],"sum_hessian":[6.0015038E1,2.8885912E1,3.1129128E1,2.7779713E1,1.1061995E0,5.6487484E0,2.548038E1,2.6556425E1,1.2232876E0,3.6795628E0,1.9691858E0,2.5985923E0,2.2881786E1,2.5479038E1,1.0773864E0,2.6766543E0,1.0029083E0,1.1895689E0,1.4090233E0,1.0636493E0,2.1818138E1],"tree_param":{"num_deleted":"0","num_feature":"30","num_nodes":"21","size_leaf_vector":"1"}},{"base_weights":[-4.4011697E-3,7.077979E-1,-1.0400252E0,9.54061E-1,-4.0317973E-1,5.6129387E-3,-1.1338327E0,1.0018816E0,-1.2360501E-2,4.8434564E-1,-9.251597E-2,-2.7575925E-2,-1.1658694E-1,1.0773803E-1,4.7603574E-2,-6.401419E-3,7.690639E-2],"categories":[],"categories_nodes":[],"categories_segments":[],"categories_sizes":[],"default_left":[0,0,0,0,0,0,0,0,0,0,0,0,0,0,0,0,0],"id":13,"left_children":[1,3,5,7,9,-1,11,13,-1,15,-1,-1,-1,-1,-1,-1,-1],"loss_changes":[4.2885456E1,9.811413E0,2.4997063E0,1.5926151E0,3.6699893E0,0E0,2.7970886E-1,5.74913E-1,0E0,5.538185E-1,0E0,0E0,0E0,0E0,0E0,0E0,0E0],"parents":[2147483647,0,0,1,1,2,2,3,3,4,4,6,6,7,7,9,9],"right_children":[2,4,6,8,10,-1,12,14,-1,16,-1,-1,-1,-1,-1,-1,-1],"split_conditions":[1.677E1,1.357E-1,1.496E1,4.538E1,2.553E1,5.6129387E-3,2.09E-1,2.925E1,-1.2360501E-2,1.398E-2,-9.251597E-2,-2.7575925E-2,-1.1658694E-1,1.0773803E-1,4.7603574E-2,-6.401419E-3,7.690639E-2],"split_indices":[20,27,1,13,21,0,26,21,0,17,0,0,0,0,0,0,0],"split_type":[0,0,0,0,0,0,0,0,0,0,0,0,0,0,0,0,0],"sum_hessian":[5.6146175E1,3.345542E1,2.2690756E1,2.7500751E1,5.954669E0,1.8204285E0,2.0870327E1,2.6399612E1,1.1011401E0,2.2318835E0,3.7227855E0,1.0969567E0,1.977337E1,2.2167974E1,4.2316365E0,1.0277092E0,1.2041744E0],"tree_param":{"num_deleted":"0","num_feature":"30","num_nodes":"17","size_leaf_vector":"1"}},{"base_weights":[-4.331363E-3,8.666734E-1,-7.999104E-1,9.4768566E-1,-5.195549E-2,-1.5695332E-1,-1.1226565E-1,-1.2180873E-3,1.0114652E0,7.282056E-1,-6.2735516E-1,1.0479521E-1,3.5404395E-2,8.619413E-2,1.6654164E-2,3.3506967E-2,-8.384065E-2],"categories":[],"categories_nodes":[],"categories_segments":[],"categories_sizes":[],"default_left":[0,0,0,0,0,0,0,0,0,0,0,0,0,0,0,0,0],"id":14,"left_children":[1,3,5,7,-1,9,-1,-1,11,13,15,-1,-1,-1,-1,-1,-1],"loss_changes":[3.7826096E1,3.419014E0,5.7432384E0,1.5413303E0,0E0,4.9104857E0,0E0,0E0,1.9103622E-1,1.7001796E-1,1.8087142E0,0E0,0E0,0E0,0E0,0E0,0E0],"parents":[2147483647,0,0,1,1,2,2,3,3,5,5,8,8,9,9,10,10],"right_children":[2,4,6,8,-1,10,-1,-1,12,14,16,-1,-1,-1,-1,-1,-1],"split_conditions":[1.025E2,1.785E-1,1.514E-1,1.988E-1,-5.195549E-2,2.375E1,-1.1226565E-1,-1.2180873E-3,3.321E1,5.515E-3,8.449E-2,1.0479521E-1,3.5404395E-2,8.619413E-2,1.6654164E-2,3.3506967E-2,-8.384065E-2],"split_indices":[22,24,27,28,0,21,0,0,21,14,27,0,0,0,0,0,0],"split_type":[0,0,0,0,0,0,0,0,0,0,0,0,0,0,0,0,0],"sum_hessian":[5.2586357E1,2.506055E1,2.7525806E1,2.3975746E1,1.0848039E0,9.696091E0,1.7829716E1,1.5442461E0,2.2431501E1,3.1745203E0,6.5215707E0,2.0689217E1,1.7422839E0,2.1322076E0,1.0423125E0,1.0672293E0,5.4543414E0],"tree_param":{"num_deleted":"0","num_feature":"30","num_nodes":"17","size_leaf_vector":"1"}},{"base_weights":[-3.3928377E-3,6.579226E-1,-9.9759454E-1,8.728295E-1,-5.745092E-1,9.881183E-3,-1.11036696E-1,1.0080899E0,2.0179227E-1,2.1679139E-2,-1.0032512E-1,1.0450333E-1,1.2333798E-2,8.23141E-2,-6.500567E-2],"categories":[],"categories_nodes":[],"categories_segments":[],"categories_sizes":[],"default_left":[0,0,0,0,0,0,0,0,0,0,0,0,0,0,0],"id":15,"left_children":[1,3,5,7,9,-1,-1,11,13,-1,-1,-1,-1,-1,-1],"loss_changes":[3.374249E1,8.665231E0,2.6443481E0,2.214859E0,1.974822E0,0E0,0E0,5.876961E-1,3.5625684E0,0E0,0E0,0E0,0E0,0E0,0E0],"parents":[2147483647,0,0,1,1,2,2,3,3,4,4,7,7,8,8],"right_children":[2,4,6,8,10,-1,-1,12,14,-1,-1,-1,-1,-1,-1],"split_conditions":[1.456E-1,6.988E2,7.112E2,2.925E1,1.948E1,9.881183E-3,-1.11036696E-1,2.105E0,9.14E-2,2.1679139E-2,-1.0032512E-1,1.0450333E-1,1.2333798E-2,8.23141E-2,-6.500567E-2],"split_indices":[27,3,23,21,1,0,0,11,27,0,0,0,0,0,0],"split_type":[0,0,0,0,0,0,0,0,0,0,0,0,0,0,0],"sum_hessian":[4.9322594E1,2.982324E1,1.9499353E1,2.564342E1,4.179822E0,1.830126E0,1.7669228E1,2.0923586E1,4.7198334E0,1.6425785E0,2.5372434E0,1.9911028E1,1.0125587E0,2.748642E0,1.9711912E0],"tree_param":{"num_deleted":"0","num_feature":"30","num_nodes":"15","size_leaf_vector":"1"}},{"base_weights":[-3.9785146E-3,6.2252235E-1,-9.956754E-1,7.986854E-1,-7.328164E-1,4.2722593E-3,-1.0710522E-1,9.872803E-1,1.08795635E-1,-1.768156E-2,-8.689667E-2,1.8370451E-2,1.0250882E-1,8.119105E-2,-5.7269663E-2],"categories":[],"categories_nodes":[],"categories_segments":[],"categories_sizes":[],"default_left":[0,0,0,0,0,0,0,0,0,0,0,0,0,0,0],"id":16,"left_children":[1,3,5,7,9,-1,-1,11,13,-1,-1,-1,-1,-1,-1],"loss_changes":[2.9909369E1,7.6301775E0,1.5044441E0,3.3522816E0,1.4275408E-1,0E0,0E0,4.423523E-1,3.738826E0,0E0,0E0,0E0,0E0,0E0,0E0],"parents":[2147483647,0,0,1,1,2,2,3,3,4,4,7,7,8,8],"right_children":[2,4,6,8,10,-1,-1,12,14,-1,-1,-1,-1,-1,-1],"split_conditions":[8.887E2,1.609E-1,1.992E-1,2.146E1,1.775E-1,4.2722593E-3,-1.0710522E-1,1.988E-1,6.458E2,-1.768156E-2,-8.689667E-2,1.8370451E-2,1.0250882E-1,8.119105E-2,-5.7269663E-2],"split_indices":[23,27,26,1,27,0,0,28,23,0,0,0,0,0,0],"split_type":[0,0,0,0,0,0,0,0,0,0,0,0,0,0,0],"sum_hessian":[4.614242E1,2.8506077E1,1.7636345E1,2.5590597E1,2.9154806E0,1.2228917E0,1.6413454E1,1.9758228E1,5.832369E0,1.0256567E0,1.8898238E0,1.1511146E0,1.8607113E1,2.7764525E0,3.055916E0],"tree_param":{"num_deleted":"0","num_feature":"30","num_nodes":"15","size_leaf_vector":"1"}},{"base_weights":[-4.927647E-3,6.1797595E-1,-9.459114E-1,8.687542E-1,-3.63795E-1,9.628887E-3,-1.0655993E-1,-2.7082581E-2,9.4773513E-1,4.5882385E-2,-6.743163E-1,1.0224583E-1,1.6335791E-2,1.2901879E-2,-9.5671706E-2],"categories":[],"categories_nodes":[],"categories_segments":[],"categories_sizes":[],"default_left":[0,0,0,0,0,0,0,0,0,0,0,0,0,0,0],"id":17,"left_children":[1,3,5,7,9,-1,-1,-1,11,-1,13,-1,-1,-1,-1],"loss_changes":[2.6529675E1,7.022332E0,2.35112E0,2.2360268E0,1.9050934E0,0E0,0E0,0E0,1.051405E0,0E0,1.2441132E0,0E0,0E0,0E0,0E0],"parents":[2147483647,0,0,1,1,2,2,3,3,4,4,8,8,10,10],"right_children":[2,4,6,8,10,-1,-1,-1,12,-1,14,-1,-1,-1,-1],"split_conditions":[1.456E-1,3.574E1,7.112E2,3.308E-3,2.319E1,9.628887E-3,-1.0655993E-1,-2.7082581E-2,3.321E1,4.5882385E-2,1.045E-1,1.0224583E-1,1.6335791E-2,1.2901879E-2,-9.5671706E-2],"split_indices":[27,13,23,14,21,0,0,0,21,0,24,0,0,0,0],"split_type":[0,0,0,0,0,0,0,0,0,0,0,0,0,0,0],"sum_hessian":[4.3264217E1,2.623842E1,1.7025797E1,2.0991564E1,5.2468557E0,1.7739923E0,1.5251804E1,1.203131E0,1.9788433E1,1.3069502E0,3.9399056E0,1.7790138E1,1.9982948E0,1.1660424E0,2.773863E0],"tree_param":{"num_deleted":"0","num_feature":"30","num_nodes":"15","size_leaf_vector":"1"}},{"base_weights":[-5.5635297E-3,6.9286036E-1,-7.957428E-1,8.3706474E-1,-4.2292604E-1,-1.7793855E-2,-1.0202869E0,9.710811E-1,2.0505816E-1,2.3370337E-2,-8.316702E-2,8.274915E-2,-6.4638793E-1,-2.5055973E-2,-1.0587158E-1,1.01846494E-1,1.3896658E-2,7.690548E-2,-6.0840864E-2,-1.8158425E-2,-7.5945E-2],"categories":[],"categories_nodes":[],"categories_segments":[],"categories_sizes":[],"default_left":[0,0,0,0,0,0,0,0,0,0,0,0,0,0,0,0,0,0,0,0,0],"id":18,"left_children":[1,3,5,7,9,11,13,15,17,-1,-1,-1,19,-1,-1,-1,-1,-1,-1,-1,-1],"loss_changes":[2.3454847E1,3.9845963E0,3.4644918E0,1.5217276E0,1.065775E0,3.4483948E0,1.9184113E-1,5.088482E-1,2.6802952E0,0E0,0E0,0E0,5.686176E-2,0E0,0E0,0E0,0E0,0E0,0E0,0E0,0E0],"parents":[2147483647,0,0,1,1,2,2,3,3,4,4,5,5,6,6,7,7,8,8,12,12],"right_children":[2,4,6,8,10,12,14,16,18,-1,-1,-1,20,-1,-1,-1,-1,-1,-1,-1,-1],"split_conditions":[4.938E-2,6.988E2,2.375E1,2.966E1,1.948E1,8.097E2,1.498E1,2.09E0,9.14E-2,2.3370337E-2,-8.316702E-2,8.274915E-2,6.248E-3,-2.5055973E-2,-1.0587158E-1,1.01846494E-1,1.3896658E-2,7.690548E-2,-6.0840864E-2,-1.8158425E-2,-7.5945E-2],"split_indices":[7,3,21,21,1,23,20,11,27,0,0,0,14,0,0,0,0,0,0,0,0],"split_type":[0,0,0,0,0,0,0,0,0,0,0,0,0,0,0,0,0,0,0,0,0],"sum_hessian":[4.050088E1,2.1564024E1,1.8936855E1,1.9317257E1,2.2467668E0,4.4833193E0,1.4453536E1,1.5495045E1,3.8222132E0,1.0263007E0,1.2204663E0,1.7771403E0,2.7061791E0,1.0448765E0,1.3408659E1,1.4448351E1,1.0466933E0,2.2894657E0,1.5327474E0,1.0393634E0,1.6668158E0],"tree_param":{"num_deleted":"0","num_feature":"30","num_nodes":"21","size_leaf_vector":"1"}},{"base_weights":[-6.897788E-3,5.812219E-1,-9.021117E-1,8.307864E-1,-3.424113E-1,7.112103E-3,-1.0253512E-1,-2.6064893E-2,9.1521984E-1,3.3639077E-2,-6.8363005E-1,9.978671E-2,1.3437492E-2,-8.783313E-2,-7.0707435E-3],"categories":[],"categories_nodes":[],"categories_segments":[],"categories_sizes":[],"default_left":[0,0,0,0,0,0,0,0,0,0,0,0,0,0,0],"id":19,"left_children":[1,3,5,7,9,-1,-1,-1,11,-1,13,-1,-1,-1,-1],"loss_changes":[2.1002731E1,5.8356123E0,1.9696016E0,2.01264E0,1.5805402E0,0E0,0E0,0E0,1.03339E0,0E0,4.403255E-1,0E0,0E0,0E0,0E0],"parents":[2147483647,0,0,1,1,2,2,3,3,4,4,8,8,10,10],"right_children":[2,4,6,8,10,-1,-1,-1,12,-1,14,-1,-1,-1,-1],"split_conditions":[1.456E-1,3.574E1,7.112E2,3.308E-3,1.045E-1,7.112103E-3,-1.0253512E-1,-2.6064893E-2,3.321E1,3.3639077E-2,1.909E-1,9.978671E-2,1.3437492E-2,-8.783313E-2,-7.0707435E-3],"split_indices":[27,13,23,14,24,0,0,0,21,0,8,0,0,0,0],"split_type":[0,0,0,0,0,0,0,0,0,0,0,0,0,0,0],"sum_hessian":[3.7895878E1,2.3082407E1,1.481347E1,1.825142E1,4.830988E0,1.7125121E0,1.3100958E1,1.1606855E0,1.7090733E1,1.6208019E0,3.210186E0,1.52036E1,1.8871334E0,2.1076484E0,1.1025376E0],"tree_param":{"num_deleted":"0","num_feature":"30","num_nodes":"15","size_leaf_vector":"1"}},{"base_weights":[-8.299822E-3,5.617481E-1,-8.831059E-1,8.122797E-1,-3.242362E-1,1.1757057E-3,-9.967378E-2,8.862094E-1,-2.1995565E-2,4.2732533E-2,-7.91349E-2,9.890168E-2,3.473524E-2],"categories":[],"categories_nodes":[],"categories_segments":[],"categories_sizes":[],"default_left":[0,0,0,0,0,0,0,0,0,0,0,0,0],"id":20,"left_children":[1,3,5,7,9,-1,-1,11,-1,-1,-1,-1,-1],"loss_changes":[1.8723938E1,5.311383E0,1.5176687E0,1.569643E0,2.3490415E0,0E0,0E0,5.987406E-1,0E0,0E0,0E0,0E0,0E0],"parents":[2147483647,0,0,1,1,2,2,3,3,4,4,7,7],"right_children":[2,4,6,8,10,-1,-1,12,-1,-1,-1,-1,-1],"split_conditions":[1.684E1,1.357E-1,1.926E1,6.107E-1,2.553E1,1.1757057E-3,-9.967378E-2,2.925E1,-2.1995565E-2,4.2732533E-2,-7.91349E-2,9.890168E-2,3.473524E-2],"split_indices":[20,27,21,10,21,0,0,21,0,0,0,0,0],"split_type":[0,0,0,0,0,0,0,0,0,0,0,0,0],"sum_hessian":[3.555211E1,2.1742168E1,1.3809941E1,1.7014214E1,4.727954E0,1.6570492E0,1.2152892E1,1.6009092E1,1.0051221E0,1.8448529E0,2.883101E0,1.2742568E1,3.2665243E0],"tree_param":{"num_deleted":"0","num_feature":"30","num_nodes":"13","size_leaf_vector":"1"}},{"base_weights":[-8.467686E-3,7.1338856E-1,-6.611697E-1,8.818031E-1,-4.0924188E-2,3.4666595E-1,-8.5044086E-1,1.883663E-2,9.2514384E-1,7.560273E-2,-3.5181757E-2,5.7311658E-2,-9.88283E-1,9.860229E-2,2.2335332E-2,4.4728737E-2,-3.5481546E-2,-2.5881698E-2,-1.0296791E-1],"categories":[],"categories_nodes":[],"categories_segments":[],"categories_sizes":[],"default_left":[0,0,0,0,0,0,0,0,0,0,0,0,0,0,0,0,0,0,0],"id":21,"left_children":[1,3,5,7,-1,9,11,-1,13,-1,-1,15,17,-1,-1,-1,-1,-1,-1],"loss_changes":[1.6670994E1,3.5385485E0,3.8380547E0,2.7449036E-1,0E0,1.3088453E0,2.049611E0,0E0,3.692627E-1,0E0,0E0,6.480875E-1,1.5271568E-1,0E0,0E0,0E0,0E0,0E0,0E0],"parents":[2147483647,0,0,1,1,2,2,3,3,5,5,6,6,8,8,11,11,12,12],"right_children":[2,4,6,8,-1,10,12,-1,14,-1,-1,16,18,-1,-1,-1,-1,-1,-1],"split_conditions":[1.108E-1,6.988E2,7.114E2,1.988E-1,-4.0924188E-2,1.08E-1,1.997E1,1.883663E-2,3.321E1,7.560273E-2,-3.5181757E-2,3.391E-3,4.083E-2,9.860229E-2,2.2335332E-2,4.4728737E-2,-3.5481546E-2,-2.5881698E-2,-1.0296791E-1],"split_indices":[27,3,23,28,0,4,21,0,21,0,0,19,7,0,0,0,0,0,0],"split_type":[0,0,0,0,0,0,0,0,0,0,0,0,0,0,0,0,0,0,0],"sum_hessian":[3.3382004E1,1.5807124E1,1.7574877E1,1.393165E1,1.8754741E0,2.6472342E0,1.4927643E1,1.1340126E0,1.2797638E1,1.6171087E0,1.0301256E0,2.0449495E0,1.2882693E1,1.1403403E1,1.3942344E0,1.006877E0,1.0380726E0,1.0812644E0,1.180143E1],"tree_param":{"num_deleted":"0","num_feature":"30","num_nodes":"19","size_leaf_vector":"1"}},{"base_weights":[-7.4464283E-3,5.309554E-1,-8.398872E-1,7.7822506E-1,-3.011394E-1,6.5006698E-3,-9.739911E-2,-2.5584811E-2,8.7067086E-1,4.080507E-2,-5.8865374E-1,9.645248E-2,1.1589096E-2,9.904669E-3,-8.5054785E-2],"categories":[],"categories_nodes":[],"categories_segments":[],"categories_sizes":[],"default_left":[0,0,0,0,0,0,0,0,0,0,0,0,0,0,0],"id":22,"left_children":[1,3,5,7,9,-1,-1,-1,11,-1,13,-1,-1,-1,-1],"loss_changes":[1.4932369E1,4.3988285E0,1.6508093E0,1.7410564E0,1.3326709E0,0E0,0E0,0E0,9.370785E-1,0E0,8.4458685E-1,0E0,0E0,0E0,0E0],"parents":[2147483647,0,0,1,1,2,2,3,3,4,4,8,8,10,10],"right_children":[2,4,6,8,10,-1,-1,-1,12,-1,14,-1,-1,-1,-1],"split_conditions":[1.456E-1,3.574E1,7.112E2,3.308E-3,2.319E1,6.5006698E-3,-9.739911E-2,-2.5584811E-2,3.321E1,4.080507E-2,1.045E-1,9.645248E-2,1.1589096E-2,9.904669E-3,-8.5054785E-2],"split_indices":[27,13,23,14,21,0,0,0,21,0,24,0,0,0,0],"split_type":[0,0,0,0,0,0,0,0,0,0,0,0,0,0,0],"sum_hessian":[3.1322237E1,1.9240278E1,1.2081959E1,1.4882466E1,4.357813E0,1.6259272E0,1.0456031E1,1.076253E0,1.3806213E1,1.1361413E0,3.2216713E0,1.2032171E1,1.774042E0,1.0600147E0,2.1616566E0],"tree_param":{"num_deleted":"0","num_feature":"30","num_nodes":"15","size_leaf_vector":"1"}},{"base_weights":[-8.373062E-3,6.2308854E-1,-6.787574E-1,7.730651E-1,-6.9836244E-2,3.472967E-2,-8.317926E-1,8.590954E-1,-1.974426E-2,8.721262E-3,-9.2840886E-1,9.344492E-2,2.014029E-2,-2.7071804E-2,-9.9664465E-2],"categories":[],"categories_nodes":[],"categories_segments":[],"categories_sizes":[],"default_left":[0,0,0,0,0,0,0,0,0,0,0,0,0,0,0],"id":23,"left_children":[1,3,5,7,-1,-1,9,11,-1,-1,13,-1,-1,-1,-1],"loss_changes":[1.3302991E1,3.7483835E0,2.681407E0,1.423172E0,0E0,0E0,1.2844219E0,5.045519E-1,0E0,0E0,2.8444767E-1,0E0,0E0,0E0,0E0],"parents":[2147483647,0,0,1,1,2,2,3,3,6,6,7,7,10,10],"right_children":[2,4,6,8,-1,-1,10,12,-1,-1,14,-1,-1,-1,-1],"split_conditions":[7.689E2,1.767E-1,2.079E-1,4.115E0,-6.9836244E-2,3.472967E-2,1.842E1,3.321E1,-1.974426E-2,8.721262E-3,4.083E-2,9.344492E-2,2.014029E-2,-2.7071804E-2,-9.9664465E-2],"split_indices":[23,27,26,12,0,0,21,21,0,0,7,0,0,0,0],"split_type":[0,0,0,0,0,0,0,0,0,0,0,0,0,0,0],"sum_hessian":[2.9426167E1,1.5189307E1,1.423686E1,1.4013813E1,1.1754938E0,1.6830611E0,1.2553799E1,1.2978167E1,1.0356468E0,1.2035038E0,1.1350295E1,1.1266527E1,1.7116395E0,1.5338328E0,9.8164625E0],"tree_param":{"num_deleted":"0","num_feature":"30","num_nodes":"15","size_leaf_vector":"1"}},{"base_weights":[-1.0074593E-2,4.9536738E-1,-8.038813E-1,6.9897586E-1,-4.1062406E-1,5.006825E-3,-9.417071E-2,8.6789787E-1,9.76306E-2,2.637144E-2,-8.2557194E-2,9.25534E-2,1.3362742E-2,7.0527375E-2,-6.0867246E-2],"categories":[],"categories_nodes":[],"categories_segments":[],"categories_sizes":[],"default_left":[0,0,0,0,0,0,0,0,0,0,0,0,0,0,0],"id":24,"left_children":[1,3,5,7,9,-1,-1,11,13,-1,-1,-1,-1,-1,-1],"loss_changes":[1.1918303E1,3.637179E0,1.4066787E0,1.4591656E0,1.3264763E0,0E0,0E0,3.731184E-1,2.3433766E0,0E0,0E0,0E0,0E0,0E0,0E0],"parents":[2147483647,0,0,1,1,2,2,3,3,4,4,7,7,8,8],"right_children":[2,4,6,8,10,-1,-1,12,14,-1,-1,-1,-1,-1,-1],"split_conditions":[1.456E-1,6.988E2,7.112E2,2.925E1,1.948E1,5.006825E-3,-9.417071E-2,1.926E0,9.14E-2,2.637144E-2,-8.2557194E-2,9.25534E-2,1.3362742E-2,7.0527375E-2,-6.0867246E-2],"split_indices":[27,3,23,21,1,0,0,11,27,0,0,0,0,0,0],"split_type":[0,0,0,0,0,0,0,0,0,0,0,0,0,0,0],"sum_hessian":[2.7712414E1,1.7161257E1,1.0551158E1,1.4198781E1,2.9624746E0,1.5547675E0,8.99639E0,1.0738892E1,3.4598892E0,1.2673491E0,1.6951255E0,9.715776E0,1.0231158E0,1.8606237E0,1.5992655E0],"tree_param":{"num_deleted":"0","num_feature":"30","num_nodes":"15","size_leaf_vector":"1"}},{"base_weights":[-1.0590309E-2,5.620397E-1,-6.708869E-1,7.1445704E-1,-3.293049E-2,5.2444045E-2,-9.239906E-2,8.7183833E-1,1.39447E-1,7.276286E-2,-5.288574E-2,1.2695474E-2,9.404569E-2,6.812209E-2,-5.5672627E-2],"categories":[],"categories_nodes":[],"categories_segments":[],"categories_sizes":[],"default_left":[0,0,0,0,0,0,0,0,0,0,0,0,0,0,0],"id":25,"left_children":[1,3,5,7,-1,9,-1,11,13,-1,-1,-1,-1,-1,-1],"loss_changes":[1.0618571E1,2.2799535E0,2.4350696E0,1.0700784E0,0E0,2.0824676E0,0E0,3.9929867E-1,1.8954865E0,0E0,0E0,0E0,0E0,0E0,0E0],"parents":[2147483647,0,0,1,1,2,2,3,3,5,5,7,7,8,8],"right_children":[2,4,6,8,-1,10,-1,12,14,-1,-1,-1,-1,-1,-1],"split_conditions":[4.938E-2,6.988E2,2.375E1,2.966E1,-3.293049E-2,8.097E2,-9.239906E-2,2.107E-1,9.14E-2,7.276286E-2,-5.288574E-2,1.2695474E-2,9.404569E-2,6.812209E-2,-5.5672627E-2],"split_indices":[7,3,21,21,0,23,0,28,27,0,0,0,0,0,0],"split_type":[0,0,0,0,0,0,0,0,0,0,0,0,0,0,0],"sum_hessian":[2.6086359E1,1.4050302E1,1.20360565E1,1.2168051E1,1.8822513E0,3.3253946E0,8.710662E0,9.148009E0,3.020041E0,1.4220052E0,1.9033895E0,1.0120403E0,8.135969E0,1.7104319E0,1.3096092E0],"tree_param":{"num_deleted":"0","num_feature":"30","num_nodes":"15","size_leaf_vector":"1"}},{"base_weights":[-9.250455E-3,4.2231548E-1,-8.4165794E-1,8.4365416E-1,5.1344982E-3,-5.4045664E-3,-9.355471E-2,1.4489773E-2,9.199126E-2,6.957678E-1,-5.380089E-1,8.26447E-2,1.0645268E-2,2.7756417E-2,-9.458422E-2],"categories":[],"categories_nodes":[],"categories_segments":[],"categories_sizes":[],"default_left":[0,0,0,0,0,0,0,0,0,0,0,0,0,0,0],"id":26,"left_children":[1,3,5,7,9,-1,-1,-1,-1,11,13,-1,-1,-1,-1],"loss_changes":[9.549342E0,3.075295E0,6.203251E-1,3.3086014E-1,4.054084E0,0E0,0E0,0E0,0E0,2.781787E-1,2.2765794E0,0E0,0E0,0E0,0E0],"parents":[2147483647,0,0,1,1,2,2,3,3,4,4,9,9,10,10],"right_children":[2,4,6,8,10,-1,-1,-1,-1,12,14,-1,-1,-1,-1],"split_conditions":[1.146E2,9.176E1,8.352E-2,2.157E-1,2.49E1,-5.4045664E-3,-9.355471E-2,1.4489773E-2,9.199126E-2,1.032E-1,8.983E-2,8.26447E-2,1.0645268E-2,2.7756417E-2,-9.458422E-2],"split_indices":[22,22,4,28,21,0,0,0,0,4,4,0,0,0,0],"split_type":[0,0,0,0,0,0,0,0,0,0,0,0,0,0,0],"sum_hessian":[2.459272E1,1.6520329E1,8.0723915E0,7.710605E0,8.809724E0,1.0276163E0,7.0447755E0,1.0440506E0,6.6665545E0,3.7545846E0,5.055139E0,2.743774E0,1.0108106E0,1.791656E0,3.263483E0],"tree_param":{"num_deleted":"0","num_feature":"30","num_nodes":"15","size_leaf_vector":"1"}},{"base_weights":[-7.4136592E-3,4.0951052E-1,-8.217353E-1,8.254846E-1,7.735055E-3,-5.1330174E-3,-9.205048E-2,1.382415E-2,9.056371E-2,4.680463E-1,-7.6130503E-1,7.994615E-2,-1.587263E-2,-7.121513E-3,-9.857385E-2],"categories":[],"categories_nodes":[],"categories_segments":[],"categories_sizes":[],"default_left":[0,0,0,0,0,0,0,0,0,0,0,0,0,0,0],"id":27,"left_children":[1,3,5,7,9,-1,-1,-1,-1,11,13,-1,-1,-1,-1],"loss_changes":[8.540994E0,2.7763116E0,6.007209E-1,3.2489824E-1,3.7118871E0,0E0,0E0,0E0,0E0,1.4872752E0,5.384767E-1,0E0,0E0,0E0,0E0],"parents":[2147483647,0,0,1,1,2,2,3,3,4,4,9,9,10,10],"right_children":[2,4,6,8,10,-1,-1,-1,-1,12,14,-1,-1,-1,-1],"split_conditions":[1.146E2,9.176E1,8.352E-2,2.157E-1,1.377E-1,-5.1330174E-3,-9.205048E-2,1.382415E-2,9.056371E-2,2.082E1,1.987E1,7.994615E-2,-1.587263E-2,-7.121513E-3,-9.857385E-2],"split_indices":[22,22,4,28,24,0,0,0,0,1,13,0,0,0,0],"split_type":[0,0,0,0,0,0,0,0,0,0,0,0,0,0,0],"sum_hessian":[2.316564E1,1.5650078E1,7.5155616E0,7.171032E0,8.479046E0,1.0267297E0,6.488832E0,1.0335871E0,6.137445E0,5.5490403E0,2.9300056E0,3.44953E0,2.0995104E0,1.0423349E0,1.8876706E0],"tree_param":{"num_deleted":"0","num_feature":"30","num_nodes":"15","size_leaf_vector":"1"}},{"base_weights":[-8.4727835E-3,4.224699E-1,-7.5313044E-1,5.614736E-1,-6.477961E-2,9.126428E-3,-8.7619826E-2,7.9061794E-1,-4.1151185E-2,8.796246E-2,1.5018067E-2,6.267976E-2,-5.2062828E-2],"categories":[],"categories_nodes":[],"categories_segments":[],"categories_sizes":[],"default_left":[0,0,0,0,0,0,0,0,0,0,0,0,0],"id":28,"left_children":[1,3,5,7,-1,-1,-1,9,11,-1,-1,-1,-1],"loss_changes":[7.6538696E0,2.6131978E0,9.8810244E-1,1.9544501E0,0E0,0E0,0E0,4.4552374E-1,1.8587413E0,0E0,0E0,0E0,0E0],"parents":[2147483647,0,0,1,1,2,2,3,3,7,7,8,8],"right_children":[2,4,6,8,-1,-1,-1,10,12,-1,-1,-1,-1],"split_conditions":[8.887E2,1.767E-1,2.09E-1,2.146E1,-6.477961E-2,9.126428E-3,-8.7619826E-2,3.513E1,6.458E2,8.796246E-2,1.5018067E-2,6.267976E-2,-5.2062828E-2],"split_indices":[23,27,26,1,0,0,0,13,23,0,0,0,0],"split_type":[0,0,0,0,0,0,0,0,0,0,0,0,0],"sum_hessian":[2.185941E1,1.4120415E1,7.7389946E0,1.2918038E1,1.2023761E0,1.0173256E0,6.721669E0,9.133227E0,3.7848108E0,7.6908884E0,1.4423391E0,1.4531742E0,2.3316367E0],"tree_param":{"num_deleted":"0","num_feature":"30","num_nodes":"13","size_leaf_vector":"1"}},{"base_weights":[-9.198986E-3,4.183532E-1,-7.239144E-1,6.6759086E-1,-2.7946827E-1,4.394626E-3,-8.686739E-2,-1.811233E-2,7.755584E-1,2.7242223E-2,-5.9833895E-2,9.0210505E-2,3.0370094E-3],"categories":[],"categories_nodes":[],"categories_segments":[],"categories_sizes":[],"default_left":[0,0,0,0,0,0,0,0,0,0,0,0,0],"id":29,"left_children":[1,3,5,7,9,-1,-1,-1,11,-1,-1,-1,-1],"loss_changes":[6.9325504E0,2.6577883E0,9.8154116E-1,1.1268573E0,9.4509923E-1,0E0,0E0,0E0,8.90995E-1,0E0,0E0,0E0,0E0],"parents":[2147483647,0,0,1,1,2,2,3,3,4,4,8,8],"right_children":[2,4,6,8,10,-1,-1,-1,12,-1,-1,-1,-1],"split_conditions":[1.456E-1,3.574E1,7.112E2,3.535E-3,1.045E-1,4.394626E-3,-8.686739E-2,-1.811233E-2,3.321E1,2.7242223E-2,-5.9833895E-2,9.0210505E-2,3.0370094E-3],"split_indices":[27,13,23,14,24,0,0,0,21,0,0,0,0],"split_type":[0,0,0,0,0,0,0,0,0,0,0,0,0],"sum_hessian":[2.0695591E1,1.3208656E1,7.4869356E0,9.764454E0,3.444203E0,1.2980416E0,6.188894E0,1.0255119E0,8.738941E0,1.3146014E0,2.1296015E0,7.2903357E0,1.4486058E0],"tree_param":{"num_deleted":"0","num_feature":"30","num_nodes":"13","size_leaf_vector":"1"}},{"base_weights":[-1.0396202E-2,7.779869E-1,-3.782255E-1,8.613027E-2,1.4529933E-2,1.10040195E-1,-8.831625E-1,6.650766E-1,-5.355565E-1,-2.3483222E-2,-9.798568E-2,8.0333285E-2,1.1943992E-2,4.7763675E-3,-8.079825E-2],"categories":[],"categories_nodes":[],"categories_segments":[],"categories_sizes":[],"default_left":[0,0,0,0,0,0,0,0,0,0,0,0,0,0,0],"id":30,"left_children":[1,3,5,-1,-1,7,9,11,13,-1,-1,-1,-1,-1,-1],"loss_changes":[6.275947E0,2.3800898E-1,3.730713E0,0E0,0E0,3.3596487E0,2.3104715E-1,2.776997E-1,7.423718E-1,0E0,0E0,0E0,0E0,0E0,0E0],"parents":[2147483647,0,0,1,1,2,2,5,5,6,6,7,7,8,8],"right_children":[2,4,6,-1,-1,8,10,12,14,-1,-1,-1,-1,-1,-1],"split_conditions":[9.176E1,3.066E1,1.356E-1,8.613027E-2,1.4529933E-2,6.988E2,2.331E1,2.925E1,1.948E1,-2.3483222E-2,-9.798568E-2,8.0333285E-2,1.1943992E-2,4.7763675E-3,-8.079825E-2],"split_indices":[22,13,24,0,0,3,21,21,1,0,0,0,0,0,0],"split_type":[0,0,0,0,0,0,0,0,0,0,0,0,0,0,0],"sum_hessian":[1.9627209E1,5.88932E0,1.3737888E1,4.884732E0,1.0045882E0,7.381841E0,6.3560467E0,3.9530914E0,3.4287498E0,1.2699177E0,5.086129E0,2.7771242E0,1.1759672E0,1.354073E0,2.0746768E0],"tree_param":{"num_deleted":"0","num_feature":"30","num_nodes":"15","size_leaf_vector":"1"}},{"base_weights":[-1.0080045E-2,7.5973326E-1,-3.6569288E-1,1.6155967E-2,8.523226E-2,1.0512998E-1,-8.5829836E-1,6.430028E-1,-5.141869E-1,-2.2256449E-2,-9.5970154E-2,9.610411E-3,7.7428736E-2,4.500569E-3,-7.858191E-2],"categories":[],"categories_nodes":[],"categories_segments":[],"categories_sizes":[],"default_left":[0,0,0,0,0,0,0,0,0,0,0,0,0,0,0],"id":31,"left_children":[1,3,5,-1,-1,7,9,11,13,-1,-1,-1,-1,-1,-1],"loss_changes":[5.6307764E0,2.2249484E-1,3.3488965E0,0E0,0E0,3.0204563E0,2.3607635E-1,2.6777673E-1,6.89867E-1,0E0,0E0,0E0,0E0,0E0,0E0],"parents":[2147483647,0,0,1,1,2,2,5,5,6,6,7,7,8,8],"right_children":[2,4,6,-1,-1,8,10,12,14,-1,-1,-1,-1,-1,-1],"split_conditions":[9.176E1,8.294E-2,1.356E-1,1.6155967E-2,8.523226E-2,6.988E2,2.331E1,5.671E-2,1.948E1,-2.2256449E-2,-9.5970154E-2,9.610411E-3,7.7428736E-2,4.500569E-3,-7.858191E-2],"split_indices":[22,25,24,0,0,3,21,9,1,0,0,0,0,0,0],"split_type":[0,0,0,0,0,0,0,0,0,0,0,0,0,0,0],"sum_hessian":[1.8553753E1,5.5035443E0,1.3050209E1,1.1056159E0,4.397928E0,7.074818E0,5.9753914E0,3.7659066E0,3.3089113E0,1.2614903E0,4.713901E0,1.0643051E0,2.7016015E0,1.3545976E0,1.9543139E0],"tree_param":{"num_deleted":"0","num_feature":"30","num_nodes":"15","size_leaf_vector":"1"}},{"base_weights":[-9.771254E-3,7.407858E-1,-3.5316077E-1,1.5408836E-2,8.3687626E-2,9.9783525E-2,-8.3296084E-1,6.1907184E-1,-4.9371818E-1,-2.1090433E-2,-9.387936E-2,7.693513E-2,8.592919E-3,4.240697E-3,-7.642045E-2],"categories":[],"categories_nodes":[],"categories_segments":[],"categories_sizes":[],"default_left":[0,0,0,0,0,0,0,0,0,0,0,0,0,0,0],"id":32,"left_children":[1,3,5,-1,-1,7,9,11,13,-1,-1,-1,-1,-1,-1],"loss_changes":[5.05368E0,2.1827841E-1,3.0026078E0,0E0,0E0,2.7106333E0,2.3851824E-1,3.0288982E-1,6.411494E-1,0E0,0E0,0E0,0E0,0E0,0E0],"parents":[2147483647,0,0,1,1,2,2,5,5,6,6,7,7,8,8],"right_children":[2,4,6,-1,-1,8,10,12,14,-1,-1,-1,-1,-1,-1],"split_conditions":[9.176E1,8.294E-2,1.356E-1,1.5408836E-2,8.3687626E-2,6.988E2,2.331E1,2.925E1,1.948E1,-2.1090433E-2,-9.387936E-2,7.693513E-2,8.592919E-3,4.240697E-3,-7.642045E-2],"split_indices":[22,25,24,0,0,3,21,21,1,0,0,0,0,0,0],"split_type":[0,0,0,0,0,0,0,0,0,0,0,0,0,0,0],"sum_hessian":[1.7593102E1,5.159201E0,1.2433901E1,1.0924748E0,4.066726E0,6.803368E0,5.6305327E0,3.6055684E0,3.1978E0,1.2538054E0,4.376727E0,2.4671047E0,1.1384639E0,1.3551015E0,1.8426983E0],"tree_param":{"num_deleted":"0","num_feature":"30","num_nodes":"15","size_leaf_vector":"1"}},{"base_weights":[-9.3504675E-3,3.2959217E-1,-7.3277056E-1,7.7379845E-2,-2.6619604E-2,-1.1193678E-2,-8.396116E-2,5.5428904E-1,-4.9856877E-1,9.781484E-4,7.398517E-2,1.821126E-2,-7.576382E-2],"categories":[],"categories_nodes":[],"categories_segments":[],"categories_sizes":[],"default_left":[0,0,0,0,0,0,0,0,0,0,0,0,0],"id":33,"left_children":[1,3,5,-1,7,-1,-1,9,11,-1,-1,-1,-1],"loss_changes":[4.5818877E0,2.0370474E0,3.01203E-1,0E0,2.4803364E0,0E0,0E0,4.0471375E-1,1.0129884E0,0E0,0E0,0E0,0E0],"parents":[2147483647,0,0,1,1,2,2,4,4,7,7,8,8],"right_children":[2,4,6,-1,8,-1,-1,10,12,-1,-1,-1,-1],"split_conditions":[9.397E2,2.331E1,5.429E-2,7.7379845E-2,9.037E-2,-1.1193678E-2,-8.396116E-2,5.727E-2,8.969E1,9.781484E-4,7.398517E-2,1.821126E-2,-7.576382E-2],"split_indices":[23,21,9,0,4,0,0,9,22,0,0,0,0],"split_type":[0,0,0,0,0,0,0,0,0,0,0,0,0],"sum_hessian":[1.6701504E1,1.1743665E1,4.9578395E0,4.704598E0,7.039067E0,1.0285891E0,3.9292502E0,3.0770934E0,3.9619734E0,1.0496765E0,2.027417E0,1.1741229E0,2.7878504E0],"tree_param":{"num_deleted":"0","num_feature":"30","num_nodes":"13","size_leaf_vector":"1"}},{"base_weights":[-8.801564E-3,4.2298037E-1,-5.567925E-1,8.236171E-2,-4.8803456E-2,2.5989374E-2,-7.564377E-1,6.3146636E-2,-4.6437988E-1,-1.07828565E-2,-8.6981535E-2,1.2292082E-2,-7.007509E-2],"categories":[],"categories_nodes":[],"categories_segments":[],"categories_sizes":[],"default_left":[0,0,0,0,0,0,0,0,0,0,0,0,0],"id":34,"left_children":[1,3,5,-1,7,-1,9,-1,11,-1,-1,-1,-1],"loss_changes":[4.235422E0,1.9347312E0,1.4816735E0,0E0,1.8613955E0,0E0,3.9075685E-1,0E0,6.4414716E-1,0E0,0E0,0E0,0E0],"parents":[2147483647,0,0,1,1,2,2,4,4,6,6,8,8],"right_children":[2,4,6,-1,8,-1,10,-1,12,-1,-1,-1,-1],"split_conditions":[3.133E1,2.584E1,1.045E-1,8.236171E-2,8.449E-2,2.5989374E-2,1.682E1,6.3146636E-2,2.812E-1,-1.07828565E-2,-8.6981535E-2,1.2292082E-2,-7.007509E-2],"split_indices":[13,21,24,0,27,0,1,0,28,0,0,0,0],"split_type":[0,0,0,0,0,0,0,0,0,0,0,0,0],"sum_hessian":[1.5904891E1,9.023261E0,6.8816295E0,4.4762764E0,4.5469847E0,1.292527E0,5.5891023E0,1.5273399E0,3.0196447E0,1.1219165E0,4.467186E0,1.0042915E0,2.0153534E0],"tree_param":{"num_deleted":"0","num_feature":"30","num_nodes":"13","size_leaf_vector":"1"}},{"base_weights":[-7.211992E-3,5.8401245E-1,-3.873496E-1,8.3478756E-2,-1.8658808E-2,1.1558192E-2,-8.351195E-2,5.338599E-1,-4.1881552E-1,6.347626E-2,1.4968154E-2,1.1355239E-2,-6.401799E-2],"categories":[],"categories_nodes":[],"categories_segments":[],"categories_sizes":[],"default_left":[0,0,0,0,0,0,0,0,0,0,0,0,0],"id":35,"left_children":[1,3,5,-1,-1,7,-1,9,11,-1,-1,-1,-1],"loss_changes":[3.8575485E0,1.454752E0,1.8736374E0,0E0,0E0,1.6858685E0,0E0,3.594929E-2,5.5903304E-1,0E0,0E0,0E0,0E0],"parents":[2147483647,0,0,1,1,2,2,5,5,7,7,8,8],"right_children":[2,4,6,-1,-1,8,-1,10,12,-1,-1,-1,-1],"split_conditions":[2.08E-1,4.051E1,1.739E1,8.3478756E-2,-1.8658808E-2,2.553E1,-8.351195E-2,1.339E-1,1.306E-1,6.347626E-2,1.4968154E-2,1.1355239E-2,-6.401799E-2],"split_indices":[26,13,20,0,0,21,0,24,24,0,0,0,0],"split_type":[0,0,0,0,0,0,0,0,0,0,0,0,0],"sum_hessian":[1.5157444E1,5.7219033E0,9.435541E0,4.254179E0,1.4677243E0,5.5052385E0,3.9303021E0,2.3783796E0,3.1268592E0,1.3670661E0,1.0113133E0,1.0613678E0,2.0654914E0],"tree_param":{"num_deleted":"0","num_feature":"30","num_nodes":"13","size_leaf_vector":"1"}},{"base_weights":[-6.1944067E-3,5.9946376E-1,-3.6144266E-1,8.032937E-2,1.13975446E-4,1.9045426E-1,-7.36407E-1,5.07899E-1,-4.8925884E-2,-1.0390949E-2,-8.442902E-1,6.252269E-2,8.856149E-3,-2.5809018E-2,-9.279621E-2],"categories":[],"categories_nodes":[],"categories_segments":[],"categories_sizes":[],"default_left":[0,0,0,0,0,0,0,0,0,0,0,0,0,0,0],"id":36,"left_children":[1,3,5,-1,-1,7,9,11,-1,-1,13,-1,-1,-1,-1],"loss_changes":[3.5354493E0,7.404208E-1,2.2812836E0,0E0,0E0,1.3230455E0,3.466611E-1,1.357857E-1,0E0,0E0,2.036333E-2,0E0,0E0,0E0,0E0],"parents":[2147483647,0,0,1,1,2,2,5,5,6,6,7,7,10,10],"right_children":[2,4,6,-1,-1,8,10,12,-1,-1,14,-1,-1,-1,-1],"split_conditions":[6.483E2,3.51E-2,2.73E-1,8.032937E-2,1.13975446E-4,5.096E1,1.7E1,1.226E-1,-4.8925884E-2,-1.0390949E-2,8.757E-2,6.252269E-2,8.856149E-3,-2.5809018E-2,-9.279621E-2],"split_indices":[23,7,28,0,0,13,1,24,0,0,4,0,0,0,0],"split_type":[0,0,0,0,0,0,0,0,0,0,0,0,0,0,0],"sum_hessian":[1.4424767E1,5.0787024E0,9.346065E0,3.532663E0,1.5460393E0,3.9800463E0,5.366018E0,2.8853042E0,1.0947422E0,1.0679588E0,4.298059E0,1.8708621E0,1.014442E0,1.0470488E0,3.2510104E0],"tree_param":{"num_deleted":"0","num_feature":"30","num_nodes":"15","size_leaf_vector":"1"}},{"base_weights":[-7.5013908E-3,6.6189164E-1,-3.087615E-1,1.2585044E-2,7.69433E-2,1.00474566E-1,-7.5735724E-1,5.605122E-1,-4.3250266E-1,-1.898141E-2,-8.5619025E-2,7.013489E-2,8.126338E-3,5.6479624E-3,-6.886293E-2],"categories":[],"categories_nodes":[],"categories_segments":[],"categories_sizes":[],"default_left":[0,0,0,0,0,0,0,0,0,0,0,0,0,0,0],"id":37,"left_children":[1,3,5,-1,-1,7,9,11,13,-1,-1,-1,-1,-1,-1],"loss_changes":[3.192086E0,1.8657851E-1,2.0769787E0,0E0,0E0,1.8563817E0,1.3570523E-1,2.1086597E-1,4.9150968E-1,0E0,0E0,0E0,0E0,0E0,0E0],"parents":[2147483647,0,0,1,1,2,2,5,5,6,6,7,7,8,8],"right_children":[2,4,6,-1,-1,8,10,12,14,-1,-1,-1,-1,-1,-1],"split_conditions":[9.176E1,1.617E-2,1.356E-1,1.2585044E-2,7.69433E-2,6.988E2,2.331E1,2.925E1,1.948E1,-1.898141E-2,-8.5619025E-2,7.013489E-2,8.126338E-3,5.6479624E-3,-6.886293E-2],"split_indices":[22,18,24,0,0,3,21,21,1,0,0,0,0,0,0],"split_type":[0,0,0,0,0,0,0,0,0,0,0,0,0,0,0],"sum_hessian":[1.3815523E1,3.9163678E0,9.899156E0,1.0170618E0,2.8993058E0,5.5824933E0,4.3166623E0,2.9685426E0,2.6139505E0,1.0733811E0,3.2432811E0,1.9361367E0,1.0324057E0,1.1664728E0,1.4474778E0],"tree_param":{"num_deleted":"0","num_feature":"30","num_nodes":"15","size_leaf_vector":"1"}},{"base_weights":[-6.986059E-3,3.870627E-1,-5.0729275E-1,7.7319555E-2,-4.553724E-2,2.3977913E-2,-7.100448E-1,5.630678E-2,-4.125363E-1,-1.06490245E-2,-8.2132004E-2,-6.809525E-2,8.708749E-3],"categories":[],"categories_nodes":[],"categories_segments":[],"categories_sizes":[],"default_left":[0,0,0,0,0,0,0,0,0,0,0,0,0],"id":38,"left_children":[1,3,5,-1,7,-1,9,-1,11,-1,-1,-1,-1],"loss_changes":[2.99714E0,1.4574835E0,1.1839229E0,0E0,1.3401436E0,0E0,2.8300238E-1,0E0,5.516534E-1,0E0,0E0,0E0,0E0],"parents":[2147483647,0,0,1,1,2,2,4,4,6,6,8,8],"right_children":[2,4,6,-1,8,-1,10,-1,12,-1,-1,-1,-1],"split_conditions":[3.133E1,2.584E1,1.045E-1,7.7319555E-2,2.675E-1,2.3977913E-2,1.682E1,5.630678E-2,1.791E-2,-1.06490245E-2,-8.2132004E-2,-6.809525E-2,8.708749E-3],"split_indices":[13,21,24,0,28,0,1,0,18,0,0,0,0],"split_type":[0,0,0,0,0,0,0,0,0,0,0,0,0],"sum_hessian":[1.3206714E1,7.514519E0,5.6921945E0,3.554499E0,3.9600203E0,1.1760881E0,4.516106E0,1.2886938E0,2.6713264E0,1.0076472E0,3.5084589E0,1.501653E0,1.1696734E0],"tree_param":{"num_deleted":"0","num_feature":"30","num_nodes":"13","size_leaf_vector":"1"}},{"base_weights":[-6.0629738E-3,6.3392377E-1,-2.9381153E-1,1.3484952E-2,7.410422E-2,9.861461E-2,-7.270881E-1,5.381466E-1,-4.098365E-1,-1.8450169E-2,-8.223616E-2,6.714924E-2,8.838984E-3,5.6799757E-3,-6.60103E-2],"categories":[],"categories_nodes":[],"categories_segments":[],"categories_sizes":[],"default_left":[0,0,0,0,0,0,0,0,0,0,0,0,0,0,0],"id":39,"left_children":[1,3,5,-1,-1,7,9,11,13,-1,-1,-1,-1,-1,-1],"loss_changes":[2.7021117E0,1.435287E-1,1.7902863E0,0E0,0E0,1.6026442E0,1.0277367E-1,1.6550589E-1,4.3865263E-1,0E0,0E0,0E0,0E0,0E0,0E0],"parents":[2147483647,0,0,1,1,2,2,5,5,6,6,7,7,8,8],"right_children":[2,4,6,-1,-1,8,10,12,14,-1,-1,-1,-1,-1,-1],"split_conditions":[9.176E1,1.038E-2,1.356E-1,1.3484952E-2,7.410422E-2,6.988E2,2.331E1,2.925E1,1.948E1,-1.8450169E-2,-8.223616E-2,6.714924E-2,8.838984E-3,5.6799757E-3,-6.60103E-2],"split_indices":[22,15,24,0,0,3,21,21,1,0,0,0,0,0,0],"split_type":[0,0,0,0,0,0,0,0,0,0,0,0,0,0,0],"sum_hessian":[1.2661611E1,3.554015E0,9.107596E0,1.0271791E0,2.526836E0,5.184396E0,3.9232001E0,2.7493277E0,2.4350681E0,1.0246022E0,2.898598E0,1.7403343E0,1.0089934E0,1.1199325E0,1.3151357E0],"tree_param":{"num_deleted":"0","num_feature":"30","num_nodes":"15","size_leaf_vector":"1"}},{"base_weights":[-5.4238033E-3,3.712304E-1,-4.825365E-1,7.459666E-2,-3.7648223E-2,1.9463157E-2,-6.9905853E-1,5.4014124E-2,-3.84119E-1,-1.8059377E-2,-7.959435E-2,-6.360577E-2,8.8512E-3],"categories":[],"categories_nodes":[],"categories_segments":[],"categories_sizes":[],"default_left":[0,0,0,0,0,0,0,0,0,0,0,0,0],"id":40,"left_children":[1,3,5,-1,7,-1,9,-1,11,-1,-1,-1,-1],"loss_changes":[2.5405085E0,1.2398139E0,1.0497817E0,0E0,1.1551334E0,0E0,1.04389906E-1,0E0,4.78262E-1,0E0,0E0,0E0,0E0],"parents":[2147483647,0,0,1,1,2,2,4,4,6,6,8,8],"right_children":[2,4,6,-1,8,-1,10,-1,12,-1,-1,-1,-1],"split_conditions":[3.133E1,2.584E1,8.759E-2,7.459666E-2,2.675E-1,1.9463157E-2,1.708E1,5.4014124E-2,1.791E-2,-1.8059377E-2,-7.959435E-2,-6.360577E-2,8.8512E-3],"split_indices":[13,21,4,0,28,0,1,0,18,0,0,0,0],"split_type":[0,0,0,0,0,0,0,0,0,0,0,0,0],"sum_hessian":[1.2140183E1,6.9083467E0,5.2318363E0,3.1745028E0,3.733844E0,1.2920568E0,3.9397795E0,1.1901382E0,2.543706E0,1.0712347E0,2.8685448E0,1.433689E0,1.110017E0],"tree_param":{"num_deleted":"0","num_feature":"30","num_nodes":"13","size_leaf_vector":"1"}},{"base_weights":[-5.2424986E-3,5.075501E-1,-3.350105E-1,7.6985285E-2,-1.6197978E-2,1.7904246E-2,-7.648123E-2,4.6211433E-2,-3.413477E-1,6.072527E-3,-5.3412504E-2],"categories":[],"categories_nodes":[],"categories_segments":[],"categories_sizes":[],"default_left":[0,0,0,0,0,0,0,0,0,0,0],"id":41,"left_children":[1,3,5,-1,-1,7,-1,-1,9,-1,-1],"loss_changes":[2.317513E0,1.0674165E0,1.2774155E0,0E0,0E0,1.043745E0,0E0,0E0,3.1493577E-1,0E0,0E0],"parents":[2147483647,0,0,1,1,2,2,5,5,8,8],"right_children":[2,4,6,-1,-1,8,-1,-1,10,-1,-1],"split_conditions":[2.08E-1,4.051E1,1.739E1,7.6985285E-2,-1.6197978E-2,2.553E1,-7.648123E-2,4.6211433E-2,1.351E-1,6.072527E-3,-5.3412504E-2],"split_indices":[26,13,20,0,0,21,0,0,24,0,0],"split_type":[0,0,0,0,0,0,0,0,0,0,0],"sum_hessian":[1.1699262E1,4.367947E0,7.331315E0,3.0307465E0,1.3372008E0,4.5519795E0,2.7793353E0,1.9073026E0,2.644677E0,1.0790712E0,1.5656059E0],"tree_param":{"num_deleted":"0","num_feature":"30","num_nodes":"11","size_leaf_vector":"1"}},{"base_weights":[-6.1505744E-3,5.933192E-1,-2.7522454E-1,1.3196461E-2,6.996553E-2,2.299403E-1,-5.7714236E-1,5.938689E-2,-2.0486146E-2,5.229573E-3,-7.257662E-1,-1.8979182E-2,-8.1454635E-2],"categories":[],"categories_nodes":[],"categories_segments":[],"categories_sizes":[],"default_left":[0,0,0,0,0,0,0,0,0,0,0,0,0],"id":42,"left_children":[1,3,5,-1,-1,7,9,-1,-1,-1,11,-1,-1],"loss_changes":[2.1342733E0,1.0892725E-1,1.5231903E0,0E0,0E0,7.7447736E-1,5.984336E-1,0E0,0E0,0E0,7.923412E-2,0E0,0E0],"parents":[2147483647,0,0,1,1,2,2,5,5,6,6,10,10],"right_children":[2,4,6,-1,-1,8,10,-1,-1,-1,12,-1,-1],"split_conditions":[9.176E1,1.082E-2,2.698E-1,1.3196461E-2,6.996553E-2,6.988E2,1.652E1,5.938689E-2,-2.0486146E-2,5.229573E-3,8.757E-2,-1.8979182E-2,-8.1454635E-2],"split_indices":[22,15,28,0,0,3,1,0,0,0,4,0,0],"split_type":[0,0,0,0,0,0,0,0,0,0,0,0,0],"sum_hessian":[1.1219198E1,3.102376E0,8.116822E0,1.0008887E0,2.1014872E0,3.125567E0,4.9912558E0,1.5023028E0,1.6232642E0,1.0772251E0,3.9140308E0,1.0020897E0,2.911941E0],"tree_param":{"num_deleted":"0","num_feature":"30","num_nodes":"13","size_leaf_vector":"1"}},{"base_weights":[-3.4381275E-3,3.4841606E-1,-4.4385526E-1,7.030502E-2,-2.968521E-2,2.3235068E-2,-6.517804E-1,5.1621236E-2,-3.4152868E-1,-1.9450573E-2,-7.367179E-2,-6.616128E-2,6.703342E-3],"categories":[],"categories_nodes":[],"categories_segments":[],"categories_sizes":[],"default_left":[0,0,0,0,0,0,0,0,0,0,0,0,0],"id":43,"left_children":[1,3,5,-1,7,-1,9,-1,11,-1,-1,-1,-1],"loss_changes":[1.9881674E0,9.77928E-1,9.520849E-1,0E0,9.2771155E-1,0E0,3.6068916E-2,0E0,4.9042603E-1,0E0,0E0,0E0,0E0],"parents":[2147483647,0,0,1,1,2,2,4,4,6,6,8,8],"right_children":[2,4,6,-1,8,-1,10,-1,12,-1,-1,-1,-1],"split_conditions":[3.133E1,2.584E1,1.045E-1,7.030502E-2,8.449E-2,2.3235068E-2,1.708E1,5.1621236E-2,1.164E-2,-1.9450573E-2,-7.367179E-2,-6.616128E-2,6.703342E-3],"split_indices":[13,21,24,0,27,0,1,0,17,0,0,0,0],"split_type":[0,0,0,0,0,0,0,0,0,0,0,0,0],"sum_hessian":[1.0832022E1,6.1375556E0,4.6944666E0,2.723587E0,3.4139686E0,1.0763925E0,3.618074E0,1.0029309E0,2.4110377E0,1.0821468E0,2.5359273E0,1.0046135E0,1.406424E0],"tree_param":{"num_deleted":"0","num_feature":"30","num_nodes":"13","size_leaf_vector":"1"}},{"base_weights":[-3.7155948E-3,2.3378646E-1,-6.369567E-2,-2.802582E-1,4.685998E-1,4.42656E-2,-7.621329E-2,6.6378176E-1,-1.756717E-2,7.609645E-2,1.4868224E-2],"categories":[],"categories_nodes":[],"categories_segments":[],"categories_sizes":[],"default_left":[0,0,0,0,0,0,0,0,0,0,0],"id":44,"left_children":[1,3,-1,5,7,-1,-1,9,-1,-1,-1],"loss_changes":[1.8721039E0,1.2253981E0,0E0,1.5454152E0,9.46074E-1,0E0,0E0,1.5075469E-1,0E0,0E0,0E0],"parents":[2147483647,0,0,1,1,3,3,4,4,7,7],"right_children":[2,4,-1,6,8,-1,-1,10,-1,-1,-1],"split_conditions":[1.609E-1,1.203E-2,-6.369567E-2,1.272E-2,8.765E2,4.42656E-2,-7.621329E-2,1.357E-1,-1.756717E-2,7.609645E-2,1.4868224E-2],"split_indices":[27,15,0,16,23,0,0,27,0,0,0],"split_type":[0,0,0,0,0,0,0,0,0,0,0],"sum_hessian":[1.0457694E1,8.064027E0,2.3936672E0,2.467886E0,5.5961413E0,1.0196232E0,1.4482629E0,4.271736E0,1.3244048E0,3.1921623E0,1.0795741E0],"tree_param":{"num_deleted":"0","num_feature":"30","num_nodes":"11","size_leaf_vector":"1"}},{"base_weights":[-5.065673E-3,4.9429986E-1,-2.9164386E-1,7.0242845E-2,-3.0872556E-3,2.0337616E-1,-6.1206144E-1,5.3803917E-2,-1.7553238E-2,-1.6558917E-2,-7.926847E-2],"categories":[],"categories_nodes":[],"categories_segments":[],"categories_sizes":[],"default_left":[0,0,0,0,0,0,0,0,0,0,0],"id":45,"left_children":[1,3,5,-1,-1,7,9,-1,-1,-1,-1],"loss_changes":[1.7298309E0,5.0385344E-1,1.3408862E0,0E0,0E0,5.717504E-1,2.6429248E-1,0E0,0E0,0E0,0E0],"parents":[2147483647,0,0,1,1,2,2,5,5,6,6],"right_children":[2,4,6,-1,-1,8,10,-1,-1,-1,-1],"split_conditions":[6.483E2,3.51E-2,2.698E-1,7.0242845E-2,-3.0872556E-3,6.988E2,1.314E-1,5.3803917E-2,-1.7553238E-2,-1.6558917E-2,-7.926847E-2],"split_indices":[23,7,28,0,0,3,24,0,0,0,0],"split_type":[0,0,0,0,0,0,0,0,0,0,0],"sum_hessian":[1.0080299E1,3.4112775E0,6.669022E0,2.201351E0,1.2099266E0,2.7640536E0,3.9049685E0,1.2447146E0,1.519339E0,1.6768426E0,2.2281258E0],"tree_param":{"num_deleted":"0","num_feature":"30","num_nodes":"11","size_leaf_vector":"1"}},{"base_weights":[-3.8656425E-3,3.2568717E-1,-4.1122484E-1,6.733937E-2,-4.0578984E-2,2.1767443E-2,-6.139153E-1,3.9731923E-2,-3.3769228E-2,-7.090411E-2,-1.686302E-2],"categories":[],"categories_nodes":[],"categories_segments":[],"categories_sizes":[],"default_left":[0,0,0,0,0,0,0,0,0,0,0],"id":46,"left_children":[1,3,5,-1,7,-1,9,-1,-1,-1,-1],"loss_changes":[1.5769732E0,8.5513574E-1,8.027454E-1,0E0,6.6874045E-1,0E0,5.967021E-2,0E0,0E0,0E0,0E0],"parents":[2147483647,0,0,1,1,2,2,4,4,6,6],"right_children":[2,4,6,-1,8,-1,10,-1,-1,-1,-1],"split_conditions":[3.133E1,2.584E1,1.045E-1,6.733937E-2,2.698E-1,2.1767443E-2,1.991E-1,3.9731923E-2,-3.3769228E-2,-7.090411E-2,-1.686302E-2],"split_indices":[13,21,24,0,28,0,8,0,0,0,0],"split_type":[0,0,0,0,0,0,0,0,0,0,0],"sum_hessian":[9.749209E0,5.500117E0,4.2490926E0,2.391379E0,3.1087377E0,1.0176493E0,3.2314434E0,1.1203108E0,1.9884269E0,2.1745634E0,1.05688E0],"tree_param":{"num_deleted":"0","num_feature":"30","num_nodes":"11","size_leaf_vector":"1"}},{"base_weights":[-2.7469103E-3,4.7207043E-1,-2.741511E-1,6.790299E-2,-2.8243912E-3,1.738425E-1,-5.9068155E-1,4.193426E-2,-2.2365786E-2,-1.7498925E-2,-7.5264685E-2],"categories":[],"categories_nodes":[],"categories_segments":[],"categories_sizes":[],"default_left":[0,0,0,0,0,0,0,0,0,0,0],"id":47,"left_children":[1,3,5,-1,-1,7,9,-1,-1,-1,-1],"loss_changes":[1.4776436E0,4.5121944E-1,1.1363782E0,0E0,0E0,4.6370772E-1,1.7119765E-1,0E0,0E0,0E0,0E0],"parents":[2147483647,0,0,1,1,2,2,5,5,6,6],"right_children":[2,4,6,-1,-1,8,10,-1,-1,-1,-1],"split_conditions":[6.483E2,3.51E-2,2.73E-1,6.790299E-2,-2.8243912E-3,1.977E1,1.314E-1,4.193426E-2,-2.2365786E-2,-1.7498925E-2,-7.5264685E-2],"split_indices":[23,7,28,0,0,1,24,0,0,0,0],"split_type":[0,0,0,0,0,0,0,0,0,0,0],"sum_hessian":[9.46211E0,3.1725028E0,6.289607E0,1.9914963E0,1.1810064E0,2.7906775E0,3.4989293E0,1.691217E0,1.0994607E0,1.5643516E0,1.9345777E0],"tree_param":{"num_deleted":"0","num_feature":"30","num_nodes":"11","size_leaf_vector":"1"}},{"base_weights":[-3.2324851E-3,2.606604E-1,-4.7816637E-1,5.1898694E-1,-1.947314E-1,-8.34367E-3,-6.677241E-2,-5.8640605E-3,6.990776E-2,2.6958136E-2,-5.525331E-2],"categories":[],"categories_nodes":[],"categories_segments":[],"categories_sizes":[],"default_left":[0,0,0,0,0,0,0,0,0,0,0],"id":48,"left_children":[1,3,5,7,9,-1,-1,-1,-1,-1,-1],"loss_changes":[1.4025353E0,9.4824374E-1,2.43182E-1,5.473672E-1,7.02786E-1,0E0,0E0,0E0,0E0,0E0,0E0],"parents":[2147483647,0,0,1,1,2,2,3,3,4,4],"right_children":[2,4,6,8,10,-1,-1,-1,-1,-1,-1],"split_conditions":[6.988E2,1.38E-1,1.948E1,1.104E-2,6.219E2,-8.34367E-3,-6.677241E-2,-5.8640605E-3,6.990776E-2,2.6958136E-2,-5.525331E-2],"split_indices":[3,24,1,15,23,0,0,0,0,0,0],"split_type":[0,0,0,0,0,0,0,0,0,0,0],"sum_hessian":[9.196116E0,6.201482E0,2.9946346E0,3.8677845E0,2.333697E0,1.4387621E0,1.5558726E0,1.0795596E0,2.788225E0,1.1229837E0,1.2107133E0],"tree_param":{"num_deleted":"0","num_feature":"30","num_nodes":"11","size_leaf_vector":"1"}},{"base_weights":[-6.774556E-3,2.0324129E-1,-5.7380613E-2,-2.874043E-1,4.4355723E-1,2.5032816E-2,-6.420429E-2,6.270711E-1,-1.4096527E-2,7.192829E-2,1.744513E-2],"categories":[],"categories_nodes":[],"categories_segments":[],"categories_sizes":[],"default_left":[0,0,0,0,0,0,0,0,0,0,0],"id":49,"left_children":[1,3,-1,5,7,-1,-1,9,-1,-1,-1],"loss_changes":[1.29714E0,1.0675007E0,0E0,7.762767E-1,7.045959E-1,0E0,0E0,6.4650536E-2,0E0,0E0,0E0],"parents":[2147483647,0,0,1,1,3,3,4,4,7,7],"right_children":[2,4,-1,6,8,-1,-1,10,-1,-1,-1],"split_conditions":[1.609E-1,1.203E-2,-5.7380613E-2,2.653E-2,8.765E2,2.5032816E-2,-6.420429E-2,9.697E-2,-1.4096527E-2,7.192829E-2,1.744513E-2],"split_indices":[27,15,0,7,23,0,0,6,0,0,0],"split_type":[0,0,0,0,0,0,0,0,0,0,0],"sum_hessian":[8.913195E0,6.9723587E0,1.9408364E0,2.227861E0,4.744498E0,1.002269E0,1.2255918E0,3.5554528E0,1.1890448E0,2.4642572E0,1.0911958E0],"tree_param":{"num_deleted":"0","num_feature":"30","num_nodes":"11","size_leaf_vector":"1"}},{"base_weights":[-8.188776E-3,4.1918474E-1,-2.8285003E-1,6.764368E-2,-1.2330575E-2,1.2816476E-2,-6.669569E-2,4.0513914E-2,-2.960333E-1,-4.5866653E-2,2.678885E-3],"categories":[],"categories_nodes":[],"categories_segments":[],"categories_sizes":[],"default_left":[0,0,0,0,0,0,0,0,0,0,0],"id":50,"left_children":[1,3,5,-1,-1,7,-1,-1,9,-1,-1],"loss_changes":[1.2497824E0,6.65811E-1,7.426192E-1,0E0,0E0,6.813691E-1,0E0,0E0,1.7873573E-1,0E0,0E0],"parents":[2147483647,0,0,1,1,2,2,5,5,8,8],"right_children":[2,4,6,-1,-1,8,-1,-1,10,-1,-1],"split_conditions":[2.08E-1,4.051E1,1.739E1,6.764368E-2,-1.2330575E-2,2.553E1,-6.669569E-2,4.0513914E-2,8.624E1,-4.5866653E-2,2.678885E-3],"split_indices":[26,13,20,0,0,21,0,0,2,0,0],"split_type":[0,0,0,0,0,0,0,0,0,0,0],"sum_hessian":[8.636971E0,3.1732302E0,5.4637413E0,1.9850148E0,1.1882153E0,3.6334915E0,1.8302494E0,1.4631402E0,2.1703513E0,1.1634294E0,1.006922E0],"tree_param":{"num_deleted":"0","num_feature":"30","num_nodes":"11","size_leaf_vector":"1"}},{"base_weights":[-8.968472E-3,5.679201E-2,-1.983179E-1,2.8981617E-1,-4.9916732E-1,5.1483404E-2,-9.015823E-3,1.511759E-2,-7.165099E-2],"categories":[],"categories_nodes":[],"categories_segments":[],"categories_sizes":[],"default_left":[0,0,0,0,0,0,0,0,0],"id":51,"left_children":[1,-1,3,5,7,-1,-1,-1,-1],"loss_changes":[1.1351684E0,0E0,1.2885135E0,3.5445136E-1,8.413831E-1,0E0,0E0,0E0,0E0],"parents":[2147483647,0,0,2,2,3,3,4,4],"right_children":[2,-1,4,6,8,-1,-1,-1,-1],"split_conditions":[5.53E2,5.679201E-2,8.983E-2,2.683E-1,1.658E1,5.1483404E-2,-9.015823E-3,1.511759E-2,-7.165099E-2],"split_indices":[23,0,4,28,1,0,0,0,0],"split_type":[0,0,0,0,0,0,0,0,0],"sum_hessian":[8.361043E0,1.5720809E0,6.7889624E0,2.6027017E0,4.1862607E0,1.411754E0,1.1909477E0,1.1248535E0,3.0614073E0],"tree_param":{"num_deleted":"0","num_feature":"30","num_nodes":"9","size_leaf_vector":"1"}},{"base_weights":[-3.6622386E-3,5.314652E-2,-2.007922E-1,2.5779533E-1,-4.8338646E-1,5.1872194E-2,-1.3894083E-2,5.716297E-3,-6.819763E-2],"categories":[],"categories_nodes":[],"categories_segments":[],"categories_sizes":[],"default_left":[0,0,0,0,0,0,0,0,0],"id":52,"left_children":[1,-1,3,5,7,-1,-1,-1,-1],"loss_changes":[1.0695403E0,0E0,1.0830778E0,4.3149465E-1,5.675452E-1,0E0,0E0,0E0,0E0],"parents":[2147483647,0,0,2,2,3,3,4,4],"right_children":[2,-1,4,6,8,-1,-1,-1,-1],"split_conditions":[1.953E1,5.314652E-2,8.983E-2,1.081E-1,2.331E1,5.1872194E-2,-1.3894083E-2,5.716297E-3,-6.819763E-2],"split_indices":[13,0,4,24,21,0,0,0,0],"split_type":[0,0,0,0,0,0,0,0,0],"sum_hessian":[8.127212E0,1.7313334E0,6.395878E0,2.4720485E0,3.9238293E0,1.3057837E0,1.1662648E0,1.2455832E0,2.6782463E0],"tree_param":{"num_deleted":"0","num_feature":"30","num_nodes":"9","size_leaf_vector":"1"}},{"base_weights":[-1.7008293E-4,2.7850354E-1,-3.7117165E-1,5.6513947E-2,-8.427557E-2,1.3072035E-2,-5.6670643E-2,-4.101732E-2,2.3309564E-2],"categories":[],"categories_nodes":[],"categories_segments":[],"categories_sizes":[],"default_left":[0,0,0,0,0,0,0,0,0],"id":53,"left_children":[1,3,5,-1,7,-1,-1,-1,-1],"loss_changes":[1.027116E0,6.375934E-1,4.922585E-1,0E0,4.4462448E-1,0E0,0E0,0E0,0E0],"parents":[2147483647,0,0,1,1,2,2,4,4],"right_children":[2,4,6,-1,8,-1,-1,-1,-1],"split_conditions":[3.444E1,2.829E-1,8.928E-2,5.6513947E-2,1.791E-2,1.3072035E-2,-5.6670643E-2,-4.101732E-2,2.3309564E-2],"split_indices":[13,28,4,0,18,0,0,0,0],"split_type":[0,0,0,0,0,0,0,0,0],"sum_hessian":[7.934695E0,4.673539E0,3.2611556E0,2.299149E0,2.3743901E0,1.0072509E0,2.2539048E0,1.0271928E0,1.3471973E0],"tree_param":{"num_deleted":"0","num_feature":"30","num_nodes":"9","size_leaf_vector":"1"}},{"base_weights":[-6.129537E-4,3.931742E-1,-2.5433806E-1,6.386154E-2,-1.02057E-2,2.1385867E-2,-6.272529E-2,3.7755784E-2,-2.6161665E-1,-3.696531E-2,-2.5926828E-3],"categories":[],"categories_nodes":[],"categories_segments":[],"categories_sizes":[],"default_left":[0,0,0,0,0,0,0,0,0,0,0],"id":54,"left_children":[1,3,5,-1,-1,7,-1,-1,9,-1,-1],"loss_changes":[9.751316E-1,5.300955E-1,6.2355304E-1,0E0,0E0,5.401252E-1,0E0,0E0,6.758459E-2,0E0,0E0],"parents":[2147483647,0,0,1,1,2,2,5,5,8,8],"right_children":[2,4,6,-1,-1,8,-1,-1,10,-1,-1],"split_conditions":[2.08E-1,4.051E1,1.739E1,6.386154E-2,-1.02057E-2,2.553E1,-6.272529E-2,3.7755784E-2,3.345E-3,-3.696531E-2,-2.5926828E-3],"split_indices":[26,13,20,0,0,21,0,0,19,0,0],"split_type":[0,0,0,0,0,0,0,0,0,0,0],"sum_hessian":[7.7588844E0,2.8249269E0,4.9339576E0,1.6952268E0,1.1297E0,3.378575E0,1.5553824E0,1.347973E0,2.0306022E0,1.0026262E0,1.0279759E0],"tree_param":{"num_deleted":"0","num_feature":"30","num_nodes":"11","size_leaf_vector":"1"}},{"base_weights":[-1.7278407E-3,1.7300208E-1,-5.521473E-2,-2.936021E-2,3.9858028E-1,5.867123E-1,-1.5621667E-2,6.81509E-2,1.6135616E-2],"categories":[],"categories_nodes":[],"categories_segments":[],"categories_sizes":[],"default_left":[0,0,0,0,0,0,0,0,0],"id":55,"left_children":[1,3,-1,-1,5,7,-1,-1,-1],"loss_changes":[9.164038E-1,8.790852E-1,0E0,0E0,6.453388E-1,5.824721E-2,0E0,0E0,0E0],"parents":[2147483647,0,0,1,1,4,4,5,5],"right_children":[2,4,-1,-1,6,8,-1,-1,-1],"split_conditions":[1.712E-1,1.203E-2,-5.521473E-2,-2.936021E-2,8.765E2,1.034E2,-1.5621667E-2,6.81509E-2,1.6135616E-2],"split_indices":[27,15,0,0,23,22,0,0,0],"split_type":[0,0,0,0,0,0,0,0,0],"sum_hessian":[7.5353107E0,6.2400923E0,1.2952186E0,1.9353352E0,4.304757E0,3.1717038E0,1.1330531E0,2.101211E0,1.0704927E0],"tree_param":{"num_deleted":"0","num_feature":"30","num_nodes":"9","size_leaf_vector":"1"}},{"base_weights":[-3.176417E-3,3.7773278E-1,-2.4972919E-1,6.1812855E-2,-9.148806E-3,9.103359E-3,-6.0233768E-2,3.2356437E-2,-2.9816717E-2],"categories":[],"categories_nodes":[],"categories_segments":[],"categories_sizes":[],"default_left":[0,0,0,0,0,0,0,0,0],"id":56,"left_children":[1,3,5,-1,-1,7,-1,-1,-1],"loss_changes":[8.782219E-1,4.714018E-1,5.228815E-1,0E0,0E0,5.075546E-1,0E0,0E0,0E0],"parents":[2147483647,0,0,1,1,2,2,5,5],"right_children":[2,4,6,-1,-1,8,-1,-1,-1],"split_conditions":[2.08E-1,4.051E1,1.739E1,6.1812855E-2,-9.148806E-3,1.38E-1,-6.0233768E-2,3.2356437E-2,-2.9816717E-2],"split_indices":[26,13,20,0,0,24,0,0,0],"split_type":[0,0,0,0,0,0,0,0,0],"sum_hessian":[7.346884E0,2.677795E0,4.669089E0,1.5608E0,1.1169949E0,3.2543864E0,1.4147022E0,1.5821673E0,1.6722193E0],"tree_param":{"num_deleted":"0","num_feature":"30","num_nodes":"9","size_leaf_vector":"1"}},{"base_weights":[-3.4540212E-3,5.1005762E-2,-1.7372145E-1,2.537287E-1,-4.4567928E-1,4.7026157E-2,-9.598159E-3,9.207442E-3,-6.55485E-2],"categories":[],"categories_nodes":[],"categories_segments":[],"categories_sizes":[],"default_left":[0,0,0,0,0,0,0,0,0],"id":57,"left_children":[1,-1,3,5,7,-1,-1,-1,-1],"loss_changes":[8.006859E-1,0E0,9.1079193E-1,2.9544067E-1,5.744495E-1,0E0,0E0,0E0,0E0],"parents":[2147483647,0,0,2,2,3,3,4,4],"right_children":[2,-1,4,6,8,-1,-1,-1,-1],"split_conditions":[5.53E2,5.1005762E-2,8.983E-2,2.683E-1,2.331E1,4.7026157E-2,-9.598159E-3,9.207442E-3,-6.55485E-2],"split_indices":[23,0,4,28,21,0,0,0,0],"split_type":[0,0,0,0,0,0,0,0,0],"sum_hessian":[7.1441483E0,1.2820303E0,5.862118E0,2.30549E0,3.5566278E0,1.2109679E0,1.0945222E0,1.1556702E0,2.4009576E0],"tree_param":{"num_deleted":"0","num_feature":"30","num_nodes":"9","size_leaf_vector":"1"}},{"base_weights":[8.0191443E-4,3.6096156E-1,-2.316767E-1,5.9604265E-2,-8.4821265E-3,1.760668E-2,-5.8081307E-2,2.8759057E-2,-3.2046095E-2],"categories":[],"categories_nodes":[],"categories_segments":[],"categories_sizes":[],"default_left":[0,0,0,0,0,0,0,0,0],"id":58,"left_children":[1,3,5,-1,-1,7,-1,-1,-1],"loss_changes":[7.5127685E-1,4.1932148E-1,4.849958E-1,0E0,0E0,4.7123495E-1,0E0,0E0,0E0],"parents":[2147483647,0,0,1,1,2,2,5,5],"right_children":[2,4,6,-1,-1,8,-1,-1,-1],"split_conditions":[2.08E-1,4.051E1,1.739E1,5.9604265E-2,-8.4821265E-3,2.925E1,-5.8081307E-2,2.8759057E-2,-3.2046095E-2],"split_indices":[26,13,20,0,0,21,0,0,0],"split_type":[0,0,0,0,0,0,0,0,0],"sum_hessian":[6.9739065E0,2.518908E0,4.4549985E0,1.4285176E0,1.0903903E0,3.1531906E0,1.3018078E0,1.8361417E0,1.317049E0],"tree_param":{"num_deleted":"0","num_feature":"30","num_nodes":"9","size_leaf_vector":"1"}},{"base_weights":[-5.018111E-4,1.5963556E-1,-5.0775737E-2,-2.9248426E-2,3.8565657E-1,5.573754E-1,-1.29264E-2,6.488982E-2,1.5170872E-2],"categories":[],"categories_nodes":[],"categories_segments":[],"categories_sizes":[],"default_left":[0,0,0,0,0,0,0,0,0],"id":59,"left_children":[1,3,-1,-1,5,7,-1,-1,-1],"loss_changes":[7.1437776E-1,7.960976E-1,0E0,0E0,5.0437033E-1,4.4677615E-2,0E0,0E0,0E0],"parents":[2147483647,0,0,1,1,4,4,5,5],"right_children":[2,4,-1,-1,6,8,-1,-1,-1],"split_conditions":[1.712E-1,1.203E-2,-5.0775737E-2,-2.9248426E-2,8.765E2,1.034E2,-1.29264E-2,6.488982E-2,1.5170872E-2],"split_indices":[27,15,0,0,23,22,0,0,0],"split_type":[0,0,0,0,0,0,0,0,0],"sum_hessian":[6.7965927E0,5.6866493E0,1.1099436E0,1.7973242E0,3.889325E0,2.8548298E0,1.0344952E0,1.840099E0,1.0147307E0],"tree_param":{"num_deleted":"0","num_feature":"30","num_nodes":"9","size_leaf_vector":"1"}},{"base_weights":[-1.854358E-3,3.3227754E-1,-2.4129619E-1,-2.7766386E-3,5.6870278E-2,2.212121E-2,-4.9185213E-2],"categories":[],"categories_nodes":[],"categories_segments":[],"categories_sizes":[],"default_left":[0,0,0,0,0,0,0],"id":60,"left_children":[1,3,5,-1,-1,-1,-1],"loss_changes":[6.9154495E-1,3.2314813E-1,6.918032E-1,0E0,0E0,0E0,0E0],"parents":[2147483647,0,0,1,1,2,2],"right_children":[2,4,6,-1,-1,-1,-1],"split_conditions":[9.04E-2,5.698E-2,2.331E1,-2.7766386E-3,5.6870278E-2,2.212121E-2,-4.9185213E-2],"split_indices":[4,9,21,0,0,0,0],"split_type":[0,0,0,0,0,0,0],"sum_hessian":[6.641604E0,2.6107228E0,4.030881E0,1.3846476E0,1.2260753E0,1.4575194E0,2.5733614E0],"tree_param":{"num_deleted":"0","num_feature":"30","num_nodes":"7","size_leaf_vector":"1"}},{"base_weights":[2.0020125E-3,3.5004783E-1,-2.2571036E-1,5.732285E-2,-6.886534E-3,1.1186872E-2,-4.37088E-1,-1.2316602E-2,-5.5361833E-2],"categories":[],"categories_nodes":[],"categories_segments":[],"categories_sizes":[],"default_left":[0,0,0,0,0,0,0,0,0],"id":61,"left_children":[1,3,5,-1,-1,-1,7,-1,-1],"loss_changes":[6.7566633E-1,3.54501E-1,4.1701722E-1,0E0,0E0,0E0,5.5320024E-2,0E0,0E0],"parents":[2147483647,0,0,1,1,2,2,6,6],"right_children":[2,4,6,-1,-1,-1,8,-1,-1],"split_conditions":[2.08E-1,4.051E1,7.689E2,5.732285E-2,-6.886534E-3,1.1186872E-2,1.146E2,-1.2316602E-2,-5.5361833E-2],"split_indices":[26,13,23,0,0,0,22,0,0],"split_type":[0,0,0,0,0,0,0,0,0],"sum_hessian":[6.528381E0,2.3694978E0,4.1588836E0,1.3055702E0,1.0639275E0,1.7826613E0,2.3762221E0,1.2001288E0,1.1760933E0],"tree_param":{"num_deleted":"0","num_feature":"30","num_nodes":"9","size_leaf_vector":"1"}},{"base_weights":[1.0696228E-3,4.421901E-2,-1.6922691E-1,3.312018E-2,-3.6776522E-1,6.532972E-3,-5.2468844E-2],"categories":[],"categories_nodes":[],"categories_segments":[],"categories_sizes":[],"default_left":[0,0,0,0,0,0,0],"id":62,"left_children":[1,-1,3,-1,5,-1,-1],"loss_changes":[6.2987745E-1,0E0,7.232902E-1,0E0,3.6105543E-1,0E0,0E0],"parents":[2147483647,0,0,2,2,4,4],"right_children":[2,-1,4,-1,6,-1,-1],"split_conditions":[1.975E1,4.421901E-2,1.081E-1,3.312018E-2,2.319E1,6.532972E-3,-5.2468844E-2],"split_indices":[13,0,24,0,21,0,0],"split_type":[0,0,0,0,0,0,0],"sum_hessian":[6.3886766E0,1.3347291E0,5.053948E0,1.2457507E0,3.808197E0,1.168079E0,2.6401181E0],"tree_param":{"num_deleted":"0","num_feature":"30","num_nodes":"7","size_leaf_vector":"1"}},{"base_weights":[5.2714148E-3,1.906515E-1,-3.8854092E-2,-3.0694043E-2,4.5865282E-1,5.823771E-2,6.065748E-3],"categories":[],"categories_nodes":[],"categories_segments":[],"categories_sizes":[],"default_left":[0,0,0,0,0,0,0],"id":63,"left_children":[1,3,-1,-1,5,-1,-1],"loss_changes":[6.0562634E-1,8.9042795E-1,0E0,0E0,1.6432667E-1,0E0,0E0],"parents":[2147483647,0,0,1,1,4,4],"right_children":[2,4,-1,-1,6,-1,-1],"split_conditions":[1.456E-1,6.095E-2,-3.8854092E-2,-3.0694043E-2,4.451E-2,5.823771E-2,6.065748E-3],"split_indices":[27,5,0,0,7,0,0],"split_type":[0,0,0,0,0,0,0],"sum_hessian":[6.2810173E0,4.6214395E0,1.6595775E0,1.5669061E0,3.0545335E0,1.9767483E0,1.0777853E0],"tree_param":{"num_deleted":"0","num_feature":"30","num_nodes":"7","size_leaf_vector":"1"}},{"base_weights":[4.3089036E-3,4.5852E-2,-1.4967021E-1,2.3466487E-1,-3.9957938E-1,4.3290865E-2,-8.018782E-3,7.2121173E-3,-5.8489144E-2],"categories":[],"categories_nodes":[],"categories_segments":[],"categories_sizes":[],"default_left":[0,0,0,0,0,0,0,0,0],"id":64,"left_children":[1,-1,3,5,7,-1,-1,-1,-1],"loss_changes":[5.7014614E-1,0E0,6.805529E-1,2.2428949E-1,3.9812636E-1,0E0,0E0,0E0,0E0],"parents":[2147483647,0,0,2,2,3,3,4,4],"right_children":[2,-1,4,6,8,-1,-1,-1,-1],"split_conditions":[5.53E2,4.5852E-2,8.983E-2,2.567E-1,2.331E1,4.3290865E-2,-8.018782E-3,7.2121173E-3,-5.8489144E-2],"split_indices":[23,0,4,28,21,0,0,0,0],"split_type":[0,0,0,0,0,0,0,0,0],"sum_hessian":[6.1708093E0,1.0615674E0,5.1092415E0,2.0372128E0,3.0720289E0,1.0200149E0,1.017198E0,1.0387546E0,2.0332742E0],"tree_param":{"num_deleted":"0","num_feature":"30","num_nodes":"9","size_leaf_vector":"1"}},{"base_weights":[8.1583345E-3,2.4041891E-1,-2.9516393E-1,4.4965208E-2,-1.3909175E-2,6.971297E-4,-4.731029E-2],"categories":[],"categories_nodes":[],"categories_segments":[],"categories_sizes":[],"default_left":[0,0,0,0,0,0,0],"id":65,"left_children":[1,3,5,-1,-1,-1,-1],"loss_changes":[5.6722426E-1,4.2308792E-1,1.9166109E-1,0E0,0E0,0E0,0E0],"parents":[2147483647,0,0,1,1,2,2],"right_children":[2,4,6,-1,-1,-1,-1],"split_conditions":[3.444E1,2.989E1,1.119E-1,4.4965208E-2,-1.3909175E-2,6.971297E-4,-4.731029E-2],"split_indices":[13,21,27,0,0,0,0],"split_type":[0,0,0,0,0,0,0],"sum_hessian":[6.044183E0,3.540514E0,2.5036688E0,2.1631165E0,1.3773978E0,1.2841096E0,1.2195592E0],"tree_param":{"num_deleted":"0","num_feature":"30","num_nodes":"7","size_leaf_vector":"1"}},{"base_weights":[5.2487007E-3,3.2155815E-1,-2.0296212E-1,5.3914674E-2,-7.1849898E-3,1.0714448E-2,-4.031183E-1,-1.0455909E-2,-5.1605254E-2],"categories":[],"categories_nodes":[],"categories_segments":[],"categories_sizes":[],"default_left":[0,0,0,0,0,0,0,0,0],"id":66,"left_children":[1,3,5,-1,-1,-1,7,-1,-1],"loss_changes":[5.2257556E-1,3.0780914E-1,3.41156E-1,0E0,0E0,0E0,5.1490724E-2,0E0,0E0],"parents":[2147483647,0,0,1,1,2,2,6,6],"right_children":[2,4,6,-1,-1,-1,8,-1,-1],"split_conditions":[2.08E-1,4.051E1,7.689E2,5.3914674E-2,-7.1849898E-3,1.0714448E-2,1.739E1,-1.0455909E-2,-5.1605254E-2],"split_indices":[26,13,23,0,0,0,20,0,0],"split_type":[0,0,0,0,0,0,0,0,0],"sum_hessian":[5.94379E0,2.1433187E0,3.8004715E0,1.1415123E0,1.0018064E0,1.6730587E0,2.1274128E0,1.112414E0,1.0149988E0],"tree_param":{"num_deleted":"0","num_feature":"30","num_nodes":"9","size_leaf_vector":"1"}},{"base_weights":[4.178078E-3,3.0262497E-1,-2.132446E-1,-3.315017E-3,5.2469183E-2,2.005504E-2,-4.388537E-2],"categories":[],"categories_nodes":[],"categories_segments":[],"categories_sizes":[],"default_left":[0,0,0,0,0,0,0],"id":67,"left_children":[1,3,5,-1,-1,-1,-1],"loss_changes":[5.07701E-1,2.628478E-1,5.116409E-1,0E0,0E0,0E0,0E0],"parents":[2147483647,0,0,1,1,2,2],"right_children":[2,4,6,-1,-1,-1,-1],"split_conditions":[9.04E-2,5.698E-2,2.331E1,-3.315017E-3,5.2469183E-2,2.005504E-2,-4.388537E-2],"split_indices":[4,9,21,0,0,0,0],"split_type":[0,0,0,0,0,0,0],"sum_hessian":[5.8296165E0,2.2918363E0,3.5377805E0,1.2509949E0,1.0408413E0,1.2874708E0,2.2503097E0],"tree_param":{"num_deleted":"0","num_feature":"30","num_nodes":"7","size_leaf_vector":"1"}},{"base_weights":[7.660815E-3,4.1059714E-2,-1.4739957E-1,3.013127E-2,-3.313242E-1,5.9001343E-3,-4.7428813E-2],"categories":[],"categories_nodes":[],"categories_segments":[],"categories_sizes":[],"default_left":[0,0,0,0,0,0,0],"id":68,"left_children":[1,-1,3,-1,5,-1,-1],"loss_changes":[4.8180935E-1,0E0,5.6240124E-1,0E0,2.763991E-1,0E0,0E0],"parents":[2147483647,0,0,2,2,4,4],"right_children":[2,-1,4,-1,6,-1,-1],"split_conditions":[1.953E1,4.1059714E-2,1.081E-1,3.013127E-2,2.331E1,5.9001343E-3,-4.7428813E-2],"split_indices":[13,0,24,0,21,0,0],"split_type":[0,0,0,0,0,0,0],"sum_hessian":[5.742815E0,1.1379035E0,4.604912E0,1.1532185E0,3.4516933E0,1.0827708E0,2.3689225E0],"tree_param":{"num_deleted":"0","num_feature":"30","num_nodes":"7","size_leaf_vector":"1"}},{"base_weights":[1.1429962E-2,1.5888068E-1,-4.0422615E-2,-2.9726325E-2,3.8477442E-1,5.486814E-2,2.973393E-3],"categories":[],"categories_nodes":[],"categories_segments":[],"categories_sizes":[],"default_left":[0,0,0,0,0,0,0],"id":69,"left_children":[1,3,-1,-1,5,-1,-1],"loss_changes":[4.7226837E-1,6.947259E-1,0E0,0E0,2.282539E-1,0E0,0E0],"parents":[2147483647,0,0,1,1,4,4],"right_children":[2,4,-1,-1,6,-1,-1],"split_conditions":[1.609E-1,6.095E-2,-4.0422615E-2,-2.9726325E-2,4.451E-2,5.486814E-2,2.973393E-3],"split_indices":[27,5,0,0,7,0,0],"split_type":[0,0,0,0,0,0,0],"sum_hessian":[5.657736E0,4.6322436E0,1.0254924E0,1.4295769E0,3.2026665E0,1.8179787E0,1.3846879E0],"tree_param":{"num_deleted":"0","num_feature":"30","num_nodes":"7","size_leaf_vector":"1"}},{"base_weights":[8.747036E-3,2.2324269E-1,-2.7060783E-1,4.7180753E-2,-7.823064E-3,4.9144047E-4,-4.3418236E-2],"categories":[],"categories_nodes":[],"categories_segments":[],"categories_sizes":[],"default_left":[0,0,0,0,0,0,0],"id":70,"left_children":[1,3,5,-1,-1,-1,-1],"loss_changes":[4.536759E-1,3.5617274E-1,1.509778E-1,0E0,0E0,0E0,0E0],"parents":[2147483647,0,0,1,1,2,2],"right_children":[2,4,6,-1,-1,-1,-1],"split_conditions":[3.444E1,2.807E-1,1.119E-1,4.7180753E-2,-7.823064E-3,4.9144047E-4,-4.3418236E-2],"split_indices":[13,28,27,0,0,0,0],"split_type":[0,0,0,0,0,0,0],"sum_hessian":[5.5631175E0,3.260493E0,2.3026245E0,1.4773837E0,1.7831092E0,1.2191181E0,1.0835065E0],"tree_param":{"num_deleted":"0","num_feature":"30","num_nodes":"7","size_leaf_vector":"1"}},{"base_weights":[7.488592E-3,2.2162753E-1,-2.6304325E-1,4.1653898E-2,-1.3074577E-2,2.2716874E-3,-4.1331615E-2],"categories":[],"categories_nodes":[],"categories_segments":[],"categories_sizes":[],"default_left":[0,0,0,0,0,0,0],"id":71,"left_children":[1,3,5,-1,-1,-1,-1],"loss_changes":[4.3369362E-1,3.401565E-1,1.5196931E-1,0E0,0E0,0E0,0E0],"parents":[2147483647,0,0,1,1,2,2],"right_children":[2,4,6,-1,-1,-1,-1],"split_conditions":[2.02E1,9.697E-2,9.037E-2,4.1653898E-2,-1.3074577E-2,2.2716874E-3,-4.1331615E-2],"split_indices":[1,6,4,0,0,0,0],"split_type":[0,0,0,0,0,0,0],"sum_hessian":[5.480008E0,3.159714E0,2.3202941E0,1.9171613E0,1.2425526E0,1.0921955E0,1.2280985E0],"tree_param":{"num_deleted":"0","num_feature":"30","num_nodes":"7","size_leaf_vector":"1"}},{"base_weights":[5.2643674E-3,3.1577755E-2,-1.7644635E-1,1.5463091E-2,-3.9617307E-2],"categories":[],"categories_nodes":[],"categories_segments":[],"categories_sizes":[],"default_left":[0,0,0,0,0],"id":72,"left_children":[1,-1,3,-1,-1],"loss_changes":[4.173453E-1,0E0,4.0205377E-1,0E0,0E0],"parents":[2147483647,0,0,2,2],"right_children":[2,-1,4,-1,-1],"split_conditions":[2.331E1,3.1577755E-2,8.983E-2,1.5463091E-2,-3.9617307E-2],"split_indices":[21,0,4,0,0],"split_type":[0,0,0,0,0],"sum_hessian":[5.409157E0,1.7244895E0,3.684667E0,1.5880706E0,2.0965967E0],"tree_param":{"num_deleted":"0","num_feature":"30","num_nodes":"5","size_leaf_vector":"1"}},{"base_weights":[5.937505E-3,2.218085E-1,-2.5906977E-1,4.174213E-2,-1.1512612E-2,1.5327603E-3,-4.294575E-2],"categories":[],"categories_nodes":[],"categories_segments":[],"categories_sizes":[],"default_left":[0,0,0,0,0,0,0],"id":73,"left_children":[1,3,5,-1,-1,-1,-1],"loss_changes":[4.2104018E-1,3.144029E-1,1.6153738E-1,0E0,0E0,0E0,0E0],"parents":[2147483647,0,0,1,1,2,2],"right_children":[2,4,6,-1,-1,-1,-1],"split_conditions":[3.133E1,2.989E1,1.119E-1,4.174213E-2,-1.1512612E-2,1.5327603E-3,-4.294575E-2],"split_indices":[13,21,27,0,0,0,0],"split_type":[0,0,0,0,0,0,0],"sum_hessian":[5.3554087E0,3.041146E0,2.3142626E0,1.7729512E0,1.2681947E0,1.235163E0,1.0790998E0],"tree_param":{"num_deleted":"0","num_feature":"30","num_nodes":"7","size_leaf_vector":"1"}},{"base_weights":[3.6597254E-3,3.7974585E-2,-1.4177182E-1,2.6485259E-2,-3.0955964E-1,-3.433086E-3,-4.3405157E-2],"categories":[],"categories_nodes":[],"categories_segments":[],"categories_sizes":[],"default_left":[0,0,0,0,0,0,0],"id":74,"left_children":[1,-1,3,-1,5,-1,-1],"loss_changes":[3.9720365E-1,0E0,4.4054317E-1,0E0,1.2836692E-1,0E0,0E0],"parents":[2147483647,0,0,2,2,4,4],"right_children":[2,-1,4,-1,6,-1,-1],"split_conditions":[1.953E1,3.7974585E-2,1.081E-1,2.6485259E-2,7.689E2,-3.433086E-3,-4.3405157E-2],"split_indices":[13,0,24,0,23,0,0],"split_type":[0,0,0,0,0,0,0],"sum_hessian":[5.2778635E0,1.0225034E0,4.25536E0,1.0740246E0,3.1813354E0,1.3881522E0,1.7931832E0],"tree_param":{"num_deleted":"0","num_feature":"30","num_nodes":"7","size_leaf_vector":"1"}},{"base_weights":[6.1351415E-3,3.069424E-2,-1.6842782E-1,-4.821991E-2,7.688754E-2,4.3212347E-2,-3.3452198E-2],"categories":[],"categories_nodes":[],"categories_segments":[],"categories_sizes":[],"default_left":[0,0,0,0,0,0,0],"id":75,"left_children":[1,-1,3,-1,5,-1,-1],"loss_changes":[3.77333E-1,0E0,3.8883042E-1,0E0,6.4542794E-1,0E0,0E0],"parents":[2147483647,0,0,2,2,4,4],"right_children":[2,-1,4,-1,6,-1,-1],"split_conditions":[2.331E1,3.069424E-2,1.203E-2,-4.821991E-2,4.451E-2,4.3212347E-2,-3.3452198E-2],"split_indices":[21,0,15,0,7,0,0],"split_type":[0,0,0,0,0,0,0],"sum_hessian":[5.2014194E0,1.6315616E0,3.569858E0,1.1426803E0,2.4271777E0,1.275492E0,1.1516857E0],"tree_param":{"num_deleted":"0","num_feature":"30","num_nodes":"7","size_leaf_vector":"1"}},{"base_weights":[4.383396E-3,3.4426972E-2,-1.4958455E-1,1.9558316E-2,-3.6083177E-1,-4.1972855E-3,-5.1167E-2],"categories":[],"categories_nodes":[],"categories_segments":[],"categories_sizes":[],"default_left":[0,0,0,0,0,0,0],"id":76,"left_children":[1,-1,3,-1,5,-1,-1],"loss_changes":[3.7110585E-1,0E0,4.2788848E-1,0E0,1.4163828E-1,0E0,0E0],"parents":[2147483647,0,0,2,2,4,4],"right_children":[2,-1,4,-1,6,-1,-1],"split_conditions":[9.176E1,3.4426972E-2,2.698E-1,1.9558316E-2,1.377E-1,-4.1972855E-3,-5.1167E-2],"split_indices":[22,0,28,0,24,0,0],"split_type":[0,0,0,0,0,0,0],"sum_hessian":[5.1073704E0,1.2069746E0,3.9003959E0,1.508967E0,2.3914287E0,1.1784828E0,1.2129459E0],"tree_param":{"num_deleted":"0","num_feature":"30","num_nodes":"7","size_leaf_vector":"1"}},{"base_weights":[3.6971867E-3,1.7705981E-1,-3.0137092E-2,-2.0171752E-2,3.4536448E-1,5.7671316E-2,-5.229734E-3],"categories":[],"categories_nodes":[],"categories_segments":[],"categories_sizes":[],"default_left":[0,0,0,0,0,0,0],"id":77,"left_children":[1,3,-1,-1,5,-1,-1],"loss_changes":[3.722939E-1,3.5495818E-1,0E0,0E0,3.491326E-1,0E0,0E0],"parents":[2147483647,0,0,1,1,4,4],"right_children":[2,4,-1,-1,6,-1,-1],"split_conditions":[6.988E2,1.204E-2,-3.0137092E-2,-2.0171752E-2,3.169E-1,5.7671316E-2,-5.229734E-3],"split_indices":[3,15,0,0,26,0,0],"split_type":[0,0,0,0,0,0,0],"sum_hessian":[5.030419E0,3.475171E0,1.5552478E0,1.0080293E0,2.4671419E0,1.2750769E0,1.192065E0],"tree_param":{"num_deleted":"0","num_feature":"30","num_nodes":"7","size_leaf_vector":"1"}},{"base_weights":[4.0055914E-3,2.0273781E-1,-2.4979812E-1,4.2888906E-2,-7.09911E-3,-3.0757056E-3,-3.434869E-2],"categories":[],"categories_nodes":[],"categories_segments":[],"categories_sizes":[],"default_left":[0,0,0,0,0,0,0],"id":78,"left_children":[1,3,5,-1,-1,-1,-1],"loss_changes":[3.5048243E-1,2.71007E-1,5.2202627E-2,0E0,0E0,0E0,0E0],"parents":[2147483647,0,0,1,1,2,2],"right_children":[2,4,6,-1,-1,-1,-1],"split_conditions":[3.444E1,2.807E-1,2.249E-1,4.2888906E-2,-7.09911E-3,-3.0757056E-3,-3.434869E-2],"split_indices":[13,28,26,0,0,0,0],"split_type":[0,0,0,0,0,0,0],"sum_hessian":[4.944587E0,2.886004E0,2.0585833E0,1.2699496E0,1.6160544E0,1.0146519E0,1.0439315E0],"tree_param":{"num_deleted":"0","num_feature":"30","num_nodes":"7","size_leaf_vector":"1"}},{"base_weights":[3.439941E-3,2.9681051E-2,-1.6882496E-1,-4.5531698E-2,6.967079E-2,3.9988052E-2,-3.104954E-2],"categories":[],"categories_nodes":[],"categories_segments":[],"categories_sizes":[],"default_left":[0,0,0,0,0,0,0],"id":79,"left_children":[1,-1,3,-1,5,-1,-1],"loss_changes":[3.475804E-1,0E0,3.2866964E-1,0E0,5.307594E-1,0E0,0E0],"parents":[2147483647,0,0,2,2,4,4],"right_children":[2,-1,4,-1,6,-1,-1],"split_conditions":[2.331E1,2.9681051E-2,1.203E-2,-4.5531698E-2,4.451E-2,3.9988052E-2,-3.104954E-2],"split_indices":[21,0,15,0,7,0,0],"split_type":[0,0,0,0,0,0,0],"sum_hessian":[4.8861566E0,1.5401912E0,3.3459654E0,1.1070303E0,2.2389352E0,1.1704412E0,1.068494E0],"tree_param":{"num_deleted":"0","num_feature":"30","num_nodes":"7","size_leaf_vector":"1"}},{"base_weights":[1.9839692E-3,1.6836374E-1,-2.8644655E-2,3.6509186E-2,-1.5423755E-2],"categories":[],"categories_nodes":[],"categories_segments":[],"categories_sizes":[],"default_left":[0,0,0,0,0],"id":80,"left_children":[1,3,-1,-1,-1],"loss_changes":[3.26807E-1,3.2992417E-1,0E0,0E0,0E0],"parents":[2147483647,0,0,1,1],"right_children":[2,4,-1,-1,-1],"split_conditions":[6.988E2,1.38E-1,-2.8644655E-2,3.6509186E-2,-1.5423755E-2],"split_indices":[3,24,0,0,0],"split_type":[0,0,0,0,0],"sum_hessian":[4.8050756E0,3.3112645E0,1.4938109E0,1.9751003E0,1.3361644E0],"tree_param":{"num_deleted":"0","num_feature":"30","num_nodes":"5","size_leaf_vector":"1"}},{"base_weights":[5.768216E-4,1.950891E-1,-2.4189356E-1,3.6528185E-2,-1.1098758E-2,-3.523687E-2,-1.0517455E-3],"categories":[],"categories_nodes":[],"categories_segments":[],"categories_sizes":[],"default_left":[0,0,0,0,0,0,0],"id":81,"left_children":[1,3,5,-1,-1,-1,-1],"loss_changes":[3.1792694E-1,2.3530036E-1,7.301971E-2,0E0,0E0,0E0,0E0],"parents":[2147483647,0,0,1,1,2,2],"right_children":[2,4,6,-1,-1,-1,-1],"split_conditions":[2.02E1,9.697E-2,1.484E-2,3.6528185E-2,-1.1098758E-2,-3.523687E-2,-1.0517455E-3],"split_indices":[1,6,15,0,0,0,0],"split_type":[0,0,0,0,0,0,0],"sum_hessian":[4.740378E0,2.7387414E0,2.0016365E0,1.6357542E0,1.1029872E0,1.0008398E0,1.0007968E0],"tree_param":{"num_deleted":"0","num_feature":"30","num_nodes":"7","size_leaf_vector":"1"}},{"base_weights":[-1.3070155E-3,1.9725962E-1,-2.3909296E-1,3.732512E-2,-1.0383247E-2,-1.4758916E-3,-3.4353714E-2],"categories":[],"categories_nodes":[],"categories_segments":[],"categories_sizes":[],"default_left":[0,0,0,0,0,0,0],"id":82,"left_children":[1,3,5,-1,-1,-1,-1],"loss_changes":[3.1604734E-1,2.3223232E-1,6.624022E-2,0E0,0E0,0E0,0E0],"parents":[2147483647,0,0,1,1,2,2],"right_children":[2,4,6,-1,-1,-1,-1],"split_conditions":[3.133E1,2.989E1,2.249E-1,3.732512E-2,-1.0383247E-2,-1.4758916E-3,-3.4353714E-2],"split_indices":[13,21,26,0,0,0,0],"split_type":[0,0,0,0,0,0,0],"sum_hessian":[4.6947203E0,2.6512158E0,2.0435045E0,1.5219573E0,1.1292584E0,1.0117311E0,1.0317733E0],"tree_param":{"num_deleted":"0","num_feature":"30","num_nodes":"7","size_leaf_vector":"1"}},{"base_weights":[-2.7208703E-3,2.797552E-2,-1.66507E-1,1.3305758E-2,-3.6529522E-2],"categories":[],"categories_nodes":[],"categories_segments":[],"categories_sizes":[],"default_left":[0,0,0,0,0],"id":83,"left_children":[1,-1,3,-1,-1],"loss_changes":[3.0758935E-1,0E0,2.985875E-1,0E0,0E0],"parents":[2147483647,0,0,2,2],"right_children":[2,-1,4,-1,-1],"split_conditions":[2.331E1,2.797552E-2,9.037E-2,1.3305758E-2,-3.6529522E-2],"split_indices":[21,0,4,0,0],"split_type":[0,0,0,0,0],"sum_hessian":[4.6415086E0,1.4436483E0,3.1978602E0,1.4074919E0,1.7903683E0],"tree_param":{"num_deleted":"0","num_feature":"30","num_nodes":"5","size_leaf_vector":"1"}},{"base_weights":[-1.6346513E-3,1.9084997E-1,-2.3146283E-2,3.572237E-2,-9.307939E-3],"categories":[],"categories_nodes":[],"categories_segments":[],"categories_sizes":[],"default_left":[0,0,0,0,0],"id":84,"left_children":[1,3,-1,-1,-1],"loss_changes":[2.9196358E-1,2.0313546E-1,0E0,0E0,0E0],"parents":[2147483647,0,0,1,1],"right_children":[2,4,-1,-1,-1],"split_conditions":[3.133E1,2.989E1,-2.3146283E-2,3.572237E-2,-9.307939E-3],"split_indices":[13,21,0,0,0],"split_type":[0,0,0,0,0],"sum_hessian":[4.6012187E0,2.5963407E0,2.004878E0,1.4743025E0,1.1220381E0],"tree_param":{"num_deleted":"0","num_feature":"30","num_nodes":"5","size_leaf_vector":"1"}},{"base_weights":[-8.2376896E-4,2.5279427E-2,-1.7138776E-1,1.0312504E-2,-3.5027724E-2],"categories":[],"categories_nodes":[],"categories_segments":[],"categories_sizes":[],"default_left":[0,0,0,0,0],"id":85,"left_children":[1,-1,3,-1,-1],"loss_changes":[2.8387538E-1,0E0,2.2866052E-1,0E0,0E0],"parents":[2147483647,0,0,2,2],"right_children":[2,-1,4,-1,-1],"split_conditions":[2.08E-1,2.5279427E-2,7.689E2,1.0312504E-2,-3.5027724E-2],"split_indices":[26,0,23,0,0],"split_type":[0,0,0,0,0],"sum_hessian":[4.5607967E0,1.6400446E0,2.9207523E0,1.3194824E0,1.6012698E0],"tree_param":{"num_deleted":"0","num_feature":"30","num_nodes":"5","size_leaf_vector":"1"}},{"base_weights":[-6.837782E-4,-2.9344726E-2,1.5004209E-1,3.907506E-1,-2.9152436E-2,4.674699E-2,1.1747084E-2],"categories":[],"categories_nodes":[],"categories_segments":[],"categories_sizes":[],"default_left":[0,0,0,0,0,0,0],"id":86,"left_children":[1,-1,3,5,-1,-1,-1],"loss_changes":[2.872408E-1,0E0,5.7096565E-1,1.2392372E-2,0E0,0E0,0E0],"parents":[2147483647,0,0,2,2,3,3],"right_children":[2,-1,4,6,-1,-1,-1],"split_conditions":[6.095E-2,-2.9344726E-2,1.456E-1,8.191E2,-2.9152436E-2,4.674699E-2,1.1747084E-2],"split_indices":[5,0,27,23,0,0,0],"split_type":[0,0,0,0,0,0,0],"sum_hessian":[4.5116196E0,1.2115204E0,3.3000991E0,2.210295E0,1.0898042E0,1.1709709E0,1.0393239E0],"tree_param":{"num_deleted":"0","num_feature":"30","num_nodes":"7","size_leaf_vector":"1"}},{"base_weights":[-4.9026567E-4,2.7107904E-2,-1.5813008E-1,1.3088184E-2,-3.5322625E-2],"categories":[],"categories_nodes":[],"categories_segments":[],"categories_sizes":[],"default_left":[0,0,0,0,0],"id":87,"left_children":[1,-1,3,-1,-1],"loss_changes":[2.7611798E-1,0E0,2.7622426E-1,0E0,0E0],"parents":[2147483647,0,0,2,2],"right_children":[2,-1,4,-1,-1],"split_conditions":[2.331E1,2.7107904E-2,9.037E-2,1.3088184E-2,-3.5322625E-2],"split_indices":[21,0,4,0,0],"split_type":[0,0,0,0,0],"sum_hessian":[4.448529E0,1.3695564E0,3.0789723E0,1.3734744E0,1.7054981E0],"tree_param":{"num_deleted":"0","num_feature":"30","num_nodes":"5","size_leaf_vector":"1"}},{"base_weights":[4.4078424E-4,1.5571214E-1,-2.657543E-2,3.3911806E-2,-1.4500262E-2],"categories":[],"categories_nodes":[],"categories_segments":[],"categories_sizes":[],"default_left":[0,0,0,0,0],"id":88,"left_children":[1,3,-1,-1,-1],"loss_changes":[2.6505125E-1,2.724539E-1,0E0,0E0,0E0],"parents":[2147483647,0,0,1,1],"right_children":[2,4,-1,-1,-1],"split_conditions":[6.988E2,1.38E-1,-2.657543E-2,3.3911806E-2,-1.4500262E-2],"split_indices":[3,24,0,0,0],"split_type":[0,0,0,0,0],"sum_hessian":[4.4114857E0,3.0484009E0,1.3630847E0,1.8142086E0,1.2341923E0],"tree_param":{"num_deleted":"0","num_feature":"30","num_nodes":"5","size_leaf_vector":"1"}},{"base_weights":[-8.645256E-4,-2.8322611E-2,1.471003E-1,4.522685E-2,-1.9517608E-2],"categories":[],"categories_nodes":[],"categories_segments":[],"categories_sizes":[],"default_left":[0,0,0,0,0],"id":89,"left_children":[1,-1,3,-1,-1],"loss_changes":[2.6550007E-1,0E0,5.2421E-1,0E0,0E0],"parents":[2147483647,0,0,2,2],"right_children":[2,-1,4,-1,-1],"split_conditions":[6.095E-2,-2.8322611E-2,4.938E-2,4.522685E-2,-1.9517608E-2],"split_indices":[5,0,7,0,0],"split_type":[0,0,0,0,0],"sum_hessian":[4.3575788E0,1.1840016E0,3.1735773E0,1.5078487E0,1.6657287E0],"tree_param":{"num_deleted":"0","num_feature":"30","num_nodes":"5","size_leaf_vector":"1"}},{"base_weights":[-1.1270553E-3,2.6021926E-2,-1.5459873E-1,1.7949728E-2,-3.7516236E-2],"categories":[],"categories_nodes":[],"categories_segments":[],"categories_sizes":[],"default_left":[0,0,0,0,0],"id":90,"left_children":[1,-1,3,-1,-1],"loss_changes":[2.529777E-1,0E0,3.598218E-1,0E0,0E0],"parents":[2147483647,0,0,2,2],"right_children":[2,-1,4,-1,-1],"split_conditions":[6.483E2,2.6021926E-2,2.698E-1,1.7949728E-2,-3.7516236E-2],"split_indices":[23,0,28,0,0],"split_type":[0,0,0,0,0],"sum_hessian":[4.304216E0,1.33511E0,2.969106E0,1.254721E0,1.7143848E0],"tree_param":{"num_deleted":"0","num_feature":"30","num_nodes":"5","size_leaf_vector":"1"}},{"base_weights":[1.6625357E-4,2.6190257E-2,-1.5295964E-1,-3.6736645E-2,1.1465596E-2],"categories":[],"categories_nodes":[],"categories_segments":[],"categories_sizes":[],"default_left":[0,0,0,0,0],"id":91,"left_children":[1,-1,3,-1,-1],"loss_changes":[2.506204E-1,0E0,2.6852745E-1,0E0,0E0],"parents":[2147483647,0,0,2,2],"right_children":[2,-1,4,-1,-1],"split_conditions":[2.331E1,2.6190257E-2,1.631E-2,-3.6736645E-2,1.1465596E-2],"split_indices":[21,0,15,0,0],"split_type":[0,0,0,0,0],"sum_hessian":[4.2536716E0,1.3078334E0,2.9458385E0,1.4285675E0,1.5172709E0],"tree_param":{"num_deleted":"0","num_feature":"30","num_nodes":"5","size_leaf_vector":"1"}},{"base_weights":[3.1543802E-4,1.8077703E-1,-2.2343336E-2,3.7774485E-2,-6.0968488E-3],"categories":[],"categories_nodes":[],"categories_segments":[],"categories_sizes":[],"default_left":[0,0,0,0,0],"id":92,"left_children":[1,3,-1,-1,-1],"loss_changes":[2.5134006E-1,1.8705225E-1,0E0,0E0,0E0],"parents":[2147483647,0,0,1,1],"right_children":[2,4,-1,-1,-1],"split_conditions":[3.444E1,2.807E-1,-2.2343336E-2,3.7774485E-2,-6.0968488E-3],"split_indices":[13,28,0,0,0],"split_type":[0,0,0,0,0],"sum_hessian":[4.2243333E0,2.4446704E0,1.7796627E0,